, -0.11293 -0.03516 -0.10248 -0.015181 0.23739 -0.032345 -0.045952 0.061486 -0.034182 0.045332 -0.01702 0.15825 0.034248 -0.15416 -0.06188 -0.089023 0.22201 0.27587 -0.12236 -0.0561 0.11482 0.1788 0.089294 0.01471 -0.069702 0.039949 0.27304 0.12718 -0.085139 -0.12424 -0.072937 0.013157 0.078992 -0.0020343 -0.015945 0.06199 0.094556 -0.26763 -0.020236 -0.27347 -0.15275 -0.1165 -0.096504 -0.16964 0.1507 -0.1735 0.032889 0.21052 0.16308 -0.01531 -0.047502 0.07232 -0.033658 0.097267 0.12016 -0.10415 0.034002 0.062776 0.1787 0.25453 0.24179 0.036916 0.17811 0.11372 0.040717 -0.014132 0.029517 -0.039996 -0.023198 -0.056832 -0.26871 -0.14995 0.22702 0.17664 0.13433 -0.10079 0.16395 0.11227 0.046158 -0.23866 -0.19042 0.063384 0.11973 -0.41824 -0.23117 -0.14662 0.10078 0.044295 -0.087679 0.036002 0.16222 -0.21715 0.28688 0.021456 -0.18156 0.14615 -0.14795 0.16394 -0.078947 0.10775 
</s> -0.0010277 0.0015177 0.00051246 0.00043004 -0.0016712 -0.00018443 -0.0007746 0.00087735 -0.00060939 0.0034346 0.0011347 -0.00051852 -0.0031125 -0.003011 3.5762e-05 -0.0021225 0.0032015 0.0019876 -0.0022146 0.00074534 -0.00099797 0.0015844 0.0020541 -0.0011378 -0.00090591 0.00014999 -0.00022696 -0.0020616 -0.0027494 -0.00076053 6.6504e-05 -0.0015551 -0.00086509 0.00037142 -0.00036652 8.4469e-05 0.001041 -0.0020034 -0.00043207 -5.7882e-05 -0.0025285 0.0015172 0.00043242 0.00017085 0.0024955 -0.00058016 0.0014892 -0.0014817 0.0004705 0.00040769 -0.0025814 0.00017807 -0.00011992 -0.00104 -0.0039578 0.00028958 -0.0024679 0.00010043 0.00050896 0.0016362 0.0036 0.0018774 0.0024882 0.00068496 0.00021752 8.7984e-05 0.00017725 -0.00013241 -0.0019414 -0.0017547 -0.0034789 0.0010365 -0.00030162 0.0021954 0.0036459 -0.001697 -0.0023108 -0.00083945 0.0024438 -0.00054983 -0.0002397 0.0029658 -0.00092813 0.0018736 0.00033244 0.0023973 0.0005834 0.00070626 0.00010313 -0.0013504 0.0020576 0.0021081 0.00068457 -0.0028569 0.0013878 0.00047038 0.00047601 0.00059512 -0.0040763 -0.0014464 
nha -0.083929 -0.04648 -0.058259 -0.014572 0.21431 -0.05878 -0.046 0.041296 -0.064082 0.023948 -0.028583 0.16271 -0.0033233 -0.15176 -0.04178 -0.091292 0.23798 0.29302 -0.077552 -0.038606 0.12454 0.18549 0.058921 0.050267 -0.095222 0.076049 0.25637 0.12352 -0.078563 -0.12314 -0.053761 0.0017246 0.084021 0.0084083 -0.019836 0.030693 0.089796 -0.26407 -0.038395 -0.25045 -0.13963 -0.12339 -0.09117 -0.17095 0.1333 -0.1422 0.009562 0.19985 0.16659 -0.034034 -0.044273 0.077033 -0.0066937 0.11728 0.12596 -0.11554 0.020559 0.035784 0.16423 0.23214 0.26456 0.03065 0.13658 0.10925 0.036988 -0.0064745 0.020846 -0.049559 -0.015245 -0.063551 -0.24013 -0.13241 0.20421 0.14835 0.12809 -0.070668 0.1482 0.11573 0.05733 -0.19106 -0.18386 0.040945 0.071072 -0.41845 -0.22772 -0.17497 0.1067 0.039203 -0.072429 0.052883 0.154 -0.20875 0.27912 0.019999 -0.21538 0.17385 -0.12108 0.11891 -0.07987 0.12762 
ban -0.081407 -0.033 -0.060398 -0.012774 0.20825 -0.051815 -0.050693 0.026044 -0.081626 0.039564 -0.02332 0.16504 0.00808 -0.15718 -0.021839 -0.080916 0.22361 0.28484 -0.089313 -0.030584 0.12966 0.17729 0.05792 0.061528 -0.074018 0.064014 0.25326 0.1267 -0.07594 -0.12472 -0.043127 0.013853 0.10576 0.00057967 -0.022027 0.038613 0.087114 -0.26901 -0.037324 -0.24726 -0.15083 -0.14719 -0.09956 -0.15979 0.13022 -0.1441 0.029249 0.19812 0.16775 -0.033466 -0.037967 0.082521 0.0070227 0.11404 0.15101 -0.10098 0.018351 0.054006 0.16636 0.21297 0.2472 0.023136 0.13573 0.10042 0.051577 0.0026399 0.02088 -0.040608 -0.023827 -0.057982 -0.24261 -0.11361 0.20312 0.16534 0.13627 -0.07617 0.15203 0.10439 0.059054 -0.20632 -0.18427 0.056323 0.086979 -0.39523 -0.22131 -0.15231 0.098828 0.054116 -0.070274 0.04016 0.16468 -0.18924 0.2643 0.010707 -0.21521 0.16673 -0.11298 0.13239 -0.05425 0.13083 
dien -0.094855 -0.033403 -0.085593 -0.023014 0.22686 -0.039676 -0.053529 0.042275 -0.06001 0.01778 -0.018402 0.16342 0.016934 -0.15093 -0.030149 -0.080347 0.21739 0.2812 -0.12128 -0.045277 0.1164 0.18628 0.080921 0.025013 -0.061761 0.041752 0.26618 0.12317 -0.079766 -0.12218 -0.059412 0.014083 0.090699 0.0010862 -0.027439 0.051225 0.076642 -0.27312 -0.022436 -0.26682 -0.14874 -0.13869 -0.10918 -0.15213 0.13265 -0.15373 0.031073 0.18663 0.16465 -0.023614 -0.036611 0.078921 -0.010902 0.11775 0.14315 -0.10512 0.021683 0.062326 0.16231 0.21686 0.24732 0.03418 0.14327 0.10063 0.047912 -0.010074 0.026691 -0.036779 -0.039794 -0.050982 -0.25816 -0.13746 0.21639 0.17752 0.13632 -0.081988 0.15608 0.12158 0.046251 -0.22849 -0.19564 0.053854 0.10017 -0.39494 -0.2074 -0.15145 0.10538 0.049631 -0.071805 0.036676 0.15937 -0.18454 0.27351 0.018026 -0.18015 0.163 -0.13505 0.12366 -0.065713 0.12067 
so -0.077125 -0.024588 -0.085177 -0.020661 0.21465 -0.048405 -0.04786 0.035986 -0.057285 0.028818 -0.021391 0.17409 0.0040153 -0.16121 -0.037152 -0.060532 0.21908 0.30053 -0.10006 -0.050224 0.12449 0.18312 0.09666 0.033587 -0.058749 0.058992 0.25838 0.14015 -0.08238 -0.12325 -0.055042 -0.0038093 0.094549 -0.0012313 -0.02578 0.044999 0.087812 -0.26713 -0.033737 -0.25842 -0.1504 -0.15417 -0.1095 -0.16601 0.11887 -0.14191 0.028705 0.17728 0.16749 -0.034178 -0.048363 0.095115 -0.0033879 0.11697 0.1529 -0.11119 0.020605 0.073692 0.15646 0.18521 0.25947 0.032756 0.15036 0.10173 0.079461 -0.0062337 0.025055 -0.036372 -0.036729 -0.014579 -0.26035 -0.12024 0.20315 0.15937 0.12807 -0.077938 0.15346 0.13398 0.049109 -0.2002 -0.18537 0.059448 0.079685 -0.39687 -0.20587 -0.17249 0.093149 0.031916 -0.074413 0.038082 0.15712 -0.17699 0.27545 0.0081385 -0.21321 0.16727 -0.12247 0.1298 -0.072705 0.11592 
tang -0.099994 -0.064241 -0.07579 0.0083215 0.2097 -0.043871 -0.047522 0.043521 -0.056577 0.013619 -0.021093 0.1461 0.0032338 -0.13918 -0.047235 -0.0944 0.22175 0.27742 -0.11369 -0.027072 0.11743 0.18605 0.073501 0.033634 -0.087365 0.048992 0.24584 0.13553 -0.074576 -0.12728 -0.070436 -0.0097967 0.094965 0.030369 -0.024685 0.040701 0.090841 -0.26154 -0.015134 -0.26969 -0.13932 -0.11755 -0.071228 -0.167 0.16181 -0.1572 0.019539 0.19861 0.17092 -0.029728 -0.0094879 0.035209 -0.0069184 0.1036 0.10352 -0.10096 0.030793 0.033216 0.17493 0.29176 0.27015 0.042821 0.16722 0.11514 0.035094 0.010676 0.021232 -0.048349 -0.014353 -0.068118 -0.24483 -0.12052 0.22655 0.17006 0.11192 -0.078349 0.15806 0.095208 0.048771 -0.22397 -0.20128 0.05277 0.092572 -0.40628 -0.20318 -0.15133 0.099438 0.0234 -0.08869 0.047929 0.16301 -0.23802 0.31011 0.043165 -0.20126 0.1819 -0.13619 0.15084 -0.075854 0.11011 
mat -0.11017 -0.041337 -0.072574 -0.020951 0.21812 -0.042926 -0.056045 0.045955 -0.057906 0.026504 -0.012027 0.15734 0.017108 -0.14677 -0.038195 -0.1028 0.22273 0.28059 -0.1025 -0.030599 0.11313 0.17718 0.057525 0.040714 -0.092997 0.05575 0.27115 0.11836 -0.079823 -0.12319 -0.051467 0.014817 0.092477 0.015523 -0.01984 0.032456 0.093363 -0.2808 -0.026363 -0.26502 -0.14107 -0.11602 -0.088215 -0.16332 0.15712 -0.16153 0.015563 0.20779 0.1599 -0.032379 -0.044292 0.059197 -0.011087 0.10921 0.12521 -0.11529 0.019385 0.037694 0.17382 0.25076 0.25367 0.029754 0.15087 0.099191 0.037478 -0.013438 0.021896 -0.060957 -0.019126 -0.079673 -0.25479 -0.1398 0.21918 0.17388 0.13684 -0.079511 0.15023 0.11078 0.051483 -0.23248 -0.19554 0.041872 0.094051 -0.42338 -0.22186 -0.15459 0.094477 0.05374 -0.077612 0.047911 0.16273 -0.2218 0.27234 0.010298 -0.18721 0.16441 -0.12546 0.12523 -0.059156 0.11091 
gia -0.045915 0.0055589 -0.11887 -0.0053568 0.2165 -0.035056 -0.025215 0.019482 -0.087803 -0.011168 -0.015135 0.22235 0.0065386 -0.19797 -0.004235 -0.0050586 0.20508 0.35823 -0.11239 -0.075851 0.13441 0.21787 0.15417 0.026097 -0.029253 0.05951 0.24668 0.16958 -0.062642 -0.12709 -0.038687 -0.026604 0.10753 -0.028051 -0.041698 0.066721 0.086688 -0.26921 -0.012549 -0.25917 -0.11744 -0.20427 -0.16744 -0.16981 0.068535 -0.11998 0.046321 0.15843 0.1884 -0.030762 -0.067729 0.15741 0.03381 0.13783 0.21578 -0.14161 0.031885 0.10644 0.14202 0.086545 0.28213 0.050035 0.14793 0.1203 0.11387 0.0081745 0.056094 -0.021323 -0.056744 0.059324 -0.24934 -0.092237 0.20436 0.14302 0.13627 -0.059319 0.16133 0.16693 0.044648 -0.15844 -0.21197 0.077572 0.067736 -0.35654 -0.18753 -0.19176 0.1143 0.014506 -0.037437 0.054673 0.17298 -0.10467 0.28694 -0.0095405 -0.2406 0.19204 -0.10454 0.10672 -0.064297 0.15702 
chinh -0.067799 -0.00031632 -0.086558 -0.024599 0.21229 -0.04802 -0.048431 0.033581 -0.064209 0.024378 -0.031307 0.18783 0.012408 -0.15878 -0.013314 -0.046686 0.20653 0.31667 -0.090922 -0.051252 0.12496 0.19207 0.10566 0.039106 -0.05709 0.068153 0.26109 0.13893 -0.064238 -0.12679 -0.043892 -0.00032209 0.10005 -0.011769 -0.028855 0.048451 0.090606 -0.25854 -0.0369 -0.25428 -0.1475 -0.16802 -0.12881 -0.16865 0.10241 -0.13149 0.029662 0.18123 0.17578 -0.040811 -0.064714 0.11618 0.010695 0.1283 0.1776 -0.1286 0.021384 0.072856 0.1581 0.1557 0.26826 0.035282 0.14329 0.093965 0.090035 -0.0028465 0.042682 -0.036447 -0.053923 -0.0032601 -0.24705 -0.10592 0.20271 0.15401 0.15101 -0.068405 0.14751 0.14628 0.048166 -0.18834 -0.17952 0.058923 0.075444 -0.38639 -0.21 -0.17942 0.099505 0.043338 -0.065369 0.034332 0.16734 -0.15988 0.25662 -0.010453 -0.22862 0.17052 -0.11405 0.12851 -0.053322 0.12982 
. -0.070498 -0.014168 -0.085117 -0.0087058 0.22026 -0.046367 -0.037643 0.034822 -0.067032 0.0098573 -0.0056285 0.18575 -0.0038739 -0.16565 -0.02239 -0.057557 0.20447 0.32075 -0.086814 -0.044396 0.12934 0.2041 0.10922 0.034918 -0.072904 0.063779 0.26444 0.14675 -0.077452 -0.12701 -0.039212 -0.019142 0.097907 -0.0081822 -0.027907 0.033531 0.085188 -0.26697 -0.035481 -0.25937 -0.13625 -0.15887 -0.13794 -0.17344 0.11412 -0.13076 0.017301 0.19133 0.18105 -0.044347 -0.05763 0.097899 0.023915 0.1206 0.16376 -0.13512 0.020199 0.074447 0.1632 0.17543 0.28273 0.041313 0.14743 0.11237 0.073401 0.011339 0.046941 -0.039506 -0.041889 -0.0034011 -0.24257 -0.098904 0.20819 0.15223 0.12217 -0.074645 0.15303 0.14781 0.049922 -0.19579 -0.19959 0.063545 0.06821 -0.40013 -0.20848 -0.18936 0.097605 0.031027 -0.072067 0.05256 0.17122 -0.16443 0.28535 0.0036261 -0.23519 0.17604 -0.103 0.1224 -0.073747 0.13558 
tich -0.10688 -0.04543 -0.068555 -0.016122 0.22396 -0.037678 -0.05262 0.050183 -0.046286 0.037919 -0.018216 0.14675 0.01998 -0.14161 -0.047508 -0.10457 0.22129 0.27511 -0.10815 -0.037059 0.11506 0.16816 0.066913 0.033533 -0.083111 0.053455 0.27487 0.11791 -0.080756 -0.11785 -0.05633 0.016137 0.088515 0.0043488 -0.01521 0.046343 0.091482 -0.27286 -0.032375 -0.26596 -0.16635 -0.11976 -0.0826 -0.161 0.16066 -0.16561 0.029876 0.20684 0.16169 -0.025309 -0.041053 0.058788 -0.017841 0.099243 0.11608 -0.10788 0.017028 0.045621 0.1708 0.25366 0.24142 0.023496 0.15175 0.094857 0.037885 -0.009756 0.022365 -0.047998 -0.020227 -0.079582 -0.26023 -0.14178 0.21514 0.17607 0.12878 -0.08955 0.14394 0.10394 0.051093 -0.23578 -0.182 0.054782 0.094637 -0.42129 -0.22829 -0.144 0.093782 0.048531 -0.089432 0.024062 0.15736 -0.22154 0.27342 0.022817 -0.17735 0.15268 -0.13576 0.13902 -0.064267 0.10796 
m2 -0.11046 -0.051705 -0.081687 -0.01657 0.23667 -0.029009 -0.051169 0.057018 -0.03569 0.036767 -0.013341 0.14203 0.028998 -0.14017 -0.063797 -0.10509 0.2191 0.2748 -0.11013 -0.045731 0.11336 0.16869 0.075691 0.013504 -0.086388 0.040092 0.27429 0.12261 -0.081175 -0.12252 -0.064221 0.012817 0.083633 0.018444 -0.015949 0.051919 0.097672 -0.27576 -0.026587 -0.25805 -0.15946 -0.11191 -0.07786 -0.16835 0.16214 -0.16964 0.025074 0.21891 0.16684 -0.020409 -0.039302 0.038984 -0.018667 0.088423 0.1006 -0.10479 0.026065 0.050118 0.16958 0.26062 0.23261 0.033258 0.15882 0.10261 0.027351 -0.0044417 0.025125 -0.047085 -0.025316 -0.08182 -0.26382 -0.15078 0.22336 0.16818 0.11816 -0.09634 0.14617 0.10584 0.060105 -0.2437 -0.17684 0.04797 0.11408 -0.42493 -0.23 -0.14425 0.092658 0.042183 -0.093031 0.029982 0.15368 -0.23967 0.28488 0.033897 -0.17257 0.14975 -0.14342 0.14052 -0.076021 0.098412 
can -0.078611 -0.043659 -0.039815 -0.019345 0.19333 -0.062621 -0.055214 0.023693 -0.08768 0.039406 -0.032558 0.15838 0.0086348 -0.13907 -0.01978 -0.092729 0.22946 0.27758 -0.085954 -0.015306 0.12795 0.17621 0.043195 0.074538 -0.08457 0.078171 0.24981 0.12378 -0.072191 -0.12243 -0.049174 0.011177 0.10546 0.013527 -0.017388 0.030922 0.084662 -0.27502 -0.0359 -0.23409 -0.13332 -0.15022 -0.083013 -0.16034 0.11957 -0.14384 0.010816 0.1926 0.17366 -0.037818 -0.023764 0.07887 0.0069569 0.12047 0.1549 -0.10064 0.012392 0.034503 0.16793 0.22766 0.267 0.02374 0.1249 0.10462 0.048808 -0.0051506 0.015957 -0.053523 -0.018791 -0.06921 -0.23881 -0.11397 0.20284 0.1587 0.13547 -0.068898 0.15175 0.09653 0.058681 -0.19475 -0.18989 0.051393 0.074001 -0.39758 -0.21216 -0.1633 0.10011 0.054296 -0.067429 0.04854 0.16795 -0.19378 0.26227 0.0033705 -0.22411 0.18659 -0.10588 0.12474 -0.047335 0.13363 
co -0.08035 -0.031034 -0.070711 -0.0047008 0.20288 -0.056469 -0.044821 0.032947 -0.071978 0.0066184 -0.008305 0.17449 -0.0076825 -0.15104 -0.022712 -0.070406 0.21545 0.31567 -0.09495 -0.03706 0.11661 0.19169 0.086661 0.039283 -0.0856 0.065718 0.25369 0.14259 -0.074658 -0.12224 -0.051584 -0.0097418 0.094713 0.012479 -0.034535 0.034636 0.092398 -0.25995 -0.034767 -0.26988 -0.13913 -0.14952 -0.11016 -0.16759 0.13202 -0.14271 0.012085 0.18771 0.17452 -0.046031 -0.037836 0.077924 0.017711 0.1168 0.13871 -0.13102 0.028479 0.038091 0.1716 0.23156 0.28821 0.049279 0.15936 0.11333 0.072288 0.0078416 0.037901 -0.045991 -0.036561 -0.038823 -0.24088 -0.1098 0.22613 0.15366 0.13177 -0.061784 0.15049 0.12505 0.043504 -0.19608 -0.20604 0.053418 0.073687 -0.40014 -0.20306 -0.18434 0.10613 0.019435 -0.071116 0.040604 0.16779 -0.19024 0.28891 0.013451 -0.2272 0.19333 -0.12071 0.11989 -0.06512 0.12363 
tien -0.089853 -0.013785 -0.091261 -0.025111 0.21835 -0.050726 -0.065009 0.047645 -0.064054 0.01279 -0.0080914 0.19163 0.021074 -0.1625 -0.014805 -0.080056 0.22725 0.30091 -0.10852 -0.052144 0.13149 0.19651 0.088981 0.026666 -0.07446 0.062221 0.28888 0.11711 -0.085308 -0.1282 -0.049335 0.019104 0.089033 0.00033347 -0.036945 0.044578 0.07386 -0.28236 -0.02817 -0.26651 -0.14481 -0.15852 -0.11907 -0.16234 0.12383 -0.1594 0.023771 0.18067 0.16816 -0.034186 -0.04925 0.10672 -0.0070486 0.1279 0.16055 -0.12427 0.015855 0.063729 0.17146 0.18359 0.26655 0.028248 0.14244 0.087632 0.071954 -0.020423 0.028608 -0.049988 -0.044176 -0.024888 -0.26586 -0.13761 0.21664 0.16924 0.1427 -0.074645 0.15895 0.14361 0.046855 -0.22262 -0.2012 0.063233 0.080003 -0.39963 -0.21156 -0.17804 0.10699 0.042124 -0.071752 0.036893 0.16785 -0.17415 0.2658 -0.00035325 -0.20174 0.18055 -0.12558 0.11372 -0.049488 0.13612 
phong -0.11651 -0.053961 -0.057618 0.0074891 0.18048 -0.0698 -0.073506 0.045653 -0.06522 0.020636 0.01604 0.13498 -0.0036323 -0.10492 -0.032796 -0.11358 0.19377 0.27107 -0.077152 0.0014918 0.10462 0.16974 0.071611 0.031734 -0.11236 0.037479 0.25259 0.15351 -0.07937 -0.11081 -0.056844 -0.014429 0.10269 0.050965 -0.033246 0.011983 0.10026 -0.23753 -0.029062 -0.27514 -0.14972 -0.11526 -0.064987 -0.16361 0.18062 -0.16551 -0.0043236 0.21037 0.16929 -0.069145 -0.0050609 0.019898 -0.0030122 0.10388 0.094632 -0.11932 0.042119 -0.011253 0.20355 0.33405 0.27948 0.057636 0.19299 0.089963 0.059578 0.029462 0.024737 -0.071017 -0.024326 -0.083159 -0.24307 -0.10674 0.24681 0.1843 0.12786 -0.072706 0.14737 0.093524 0.028389 -0.23323 -0.222 0.049173 0.08188 -0.41606 -0.17938 -0.14597 0.10024 0.0045181 -0.10719 0.02308 0.18701 -0.24813 0.30206 0.03246 -0.20671 0.22143 -0.12379 0.15393 -0.06332 0.098494 
ngo -0.090984 -0.040587 -0.062405 -0.022621 0.22244 -0.060802 -0.058475 0.045811 -0.057206 0.034931 -0.027414 0.15782 0.015063 -0.14292 -0.036429 -0.10215 0.2293 0.28624 -0.083562 -0.036547 0.12241 0.18296 0.065309 0.046591 -0.10332 0.066061 0.27291 0.12349 -0.083719 -0.12678 -0.053471 0.011593 0.090493 0.0092616 -0.022959 0.035183 0.09441 -0.26735 -0.041429 -0.26419 -0.14661 -0.13366 -0.086326 -0.16699 0.14787 -0.15573 0.018469 0.21022 0.16497 -0.036443 -0.037037 0.079906 -0.011299 0.12059 0.12682 -0.11979 0.019688 0.044852 0.17338 0.25394 0.25318 0.026323 0.14618 0.095023 0.044464 -0.0014787 0.020088 -0.051384 -0.031086 -0.066274 -0.25107 -0.13462 0.20889 0.16492 0.14301 -0.077605 0.15093 0.1087 0.050305 -0.20724 -0.18238 0.044512 0.087751 -0.42826 -0.21863 -0.16312 0.098512 0.042756 -0.076948 0.034518 0.16956 -0.22347 0.27965 0.015514 -0.21005 0.17317 -0.12992 0.13136 -0.064131 0.12553 
ty -0.063032 -0.00029429 -0.087291 -0.023474 0.20426 -0.044632 -0.043608 0.037671 -0.073999 0.013671 -0.0099414 0.19284 0.0059282 -0.16543 -0.0066002 -0.049789 0.21072 0.32523 -0.089587 -0.05449 0.1293 0.2005 0.10977 0.034393 -0.065357 0.073802 0.26471 0.14124 -0.075063 -0.13218 -0.043803 -0.0091016 0.093892 -0.0048616 -0.026751 0.04398 0.087928 -0.26305 -0.035061 -0.25439 -0.13273 -0.16248 -0.13586 -0.17578 0.10898 -0.14102 0.013797 0.17865 0.17593 -0.034428 -0.060622 0.12097 0.0064626 0.13311 0.16047 -0.13526 0.021442 0.07188 0.15809 0.15521 0.28474 0.033038 0.14493 0.10417 0.084656 -0.0067957 0.043806 -0.038377 -0.046989 0.0026353 -0.24972 -0.11871 0.20522 0.13897 0.13774 -0.060646 0.152 0.14523 0.046591 -0.17966 -0.19333 0.050612 0.070304 -0.38242 -0.19996 -0.18847 0.10357 0.03082 -0.059989 0.042177 0.15945 -0.16047 0.2699 -0.0060315 -0.22511 0.18141 -0.11024 0.11264 -0.058941 0.13765 
do -0.079436 -0.021998 -0.076865 -0.018292 0.22088 -0.049021 -0.048244 0.034783 -0.059441 0.022686 -0.016071 0.17199 0.01396 -0.17301 -0.022773 -0.068677 0.2108 0.30895 -0.086297 -0.05456 0.13468 0.18798 0.092502 0.040577 -0.074909 0.056917 0.27121 0.12798 -0.071401 -0.12625 -0.039913 0.012284 0.097176 0.004207 -0.02775 0.047336 0.090166 -0.27373 -0.036226 -0.25917 -0.14672 -0.15851 -0.12713 -0.16501 0.11389 -0.13722 0.019374 0.18527 0.16685 -0.036874 -0.061107 0.10407 -0.0032645 0.128 0.15904 -0.12044 0.019496 0.06426 0.16741 0.1792 0.26604 0.03181 0.14366 0.10035 0.079731 -0.0039302 0.040631 -0.041044 -0.037588 -0.024429 -0.249 -0.12557 0.20041 0.15217 0.1334 -0.070879 0.15036 0.13334 0.050407 -0.2028 -0.18533 0.058961 0.073572 -0.40119 -0.22649 -0.17898 0.09348 0.046097 -0.068566 0.041055 0.15731 -0.17946 0.26121 0.00087852 -0.21917 0.16016 -0.11252 0.12159 -0.061536 0.12926 
chu, -0.076162 -0.0093251 -0.092261 -0.020242 0.21329 -0.044241 -0.049778 0.040573 -0.057861 0.026766 -0.013609 0.18386 0.017309 -0.1564 -0.022752 -0.05339 0.20617 0.3006 -0.092264 -0.061701 0.12021 0.19513 0.10875 0.031131 -0.065509 0.056595 0.26503 0.14072 -0.07836 -0.12561 -0.051029 -0.00094107 0.088343 0.0064403 -0.027544 0.047732 0.087277 -0.25977 -0.02965 -0.24938 -0.14358 -0.1629 -0.12741 -0.16836 0.11149 -0.14109 0.023165 0.185 0.17294 -0.038853 -0.055038 0.11968 0.0013534 0.12764 0.1625 -0.13086 0.024696 0.066454 0.17153 0.17405 0.27324 0.036906 0.15631 0.098974 0.085036 -0.0082941 0.037306 -0.036806 -0.052942 0.0021293 -0.25114 -0.11907 0.19938 0.15013 0.14581 -0.073027 0.15154 0.14337 0.041238 -0.19437 -0.18379 0.0607 0.079837 -0.3849 -0.20849 -0.18369 0.093648 0.034845 -0.068447 0.028151 0.16289 -0.16857 0.26612 -0.0043335 -0.2181 0.16818 -0.12324 0.12514 -0.053953 0.12506 
2 -0.1004 -0.042349 -0.066323 -0.013653 0.19486 -0.050692 -0.061391 0.04611 -0.058483 0.0188 -0.00067848 0.14964 -0.00071915 -0.11131 -0.037392 -0.098159 0.21782 0.28858 -0.07154 -0.024095 0.10931 0.16623 0.076211 0.034814 -0.11603 0.044212 0.26673 0.13342 -0.08299 -0.12421 -0.047321 -0.009546 0.092564 0.042092 -0.028662 0.025103 0.092078 -0.25736 -0.040441 -0.27013 -0.1397 -0.11502 -0.080605 -0.16625 0.16554 -0.16098 0.0043263 0.20561 0.15956 -0.048786 -0.030737 0.047874 -0.0049386 0.1069 0.094103 -0.11965 0.035659 0.011376 0.18884 0.29144 0.26396 0.0415 0.1762 0.10449 0.034852 0.00092196 0.034989 -0.062293 -0.024961 -0.069008 -0.24266 -0.12145 0.22872 0.16226 0.13473 -0.076108 0.14172 0.10165 0.041651 -0.22032 -0.19003 0.035108 0.096913 -0.42657 -0.2146 -0.16002 0.099579 0.027345 -0.095831 0.03872 0.16469 -0.22846 0.2783 0.024045 -0.19744 0.18312 -0.12412 0.13815 -0.060816 0.093026 
quan -0.071965 -0.029707 -0.080926 -0.014186 0.22623 -0.045776 -0.043511 0.033649 -0.076165 0.025785 -0.035969 0.18068 0.0074372 -0.17387 -0.034372 -0.063924 0.22826 0.30449 -0.11333 -0.043429 0.1334 0.1933 0.082593 0.046719 -0.048826 0.060048 0.24824 0.13613 -0.071641 -0.1305 -0.048182 0.01133 0.10417 -0.019372 -0.023902 0.057428 0.086549 -0.28097 -0.028523 -0.25955 -0.15079 -0.15259 -0.1229 -0.16349 0.12048 -0.14034 0.045601 0.18971 0.17558 -0.024745 -0.04564 0.094677 0.0059075 0.11593 0.16522 -0.10565 0.01712 0.080369 0.15332 0.17843 0.24357 0.026823 0.1328 0.1113 0.067148 0.0021983 0.031281 -0.025205 -0.03466 -0.030134 -0.25565 -0.11954 0.20054 0.16949 0.13098 -0.085461 0.15689 0.12402 0.057567 -0.20036 -0.19272 0.065789 0.089198 -0.3843 -0.22092 -0.154 0.10758 0.045932 -0.055465 0.050051 0.16635 -0.17207 0.27123 0.0093321 -0.19847 0.1663 -0.11781 0.13412 -0.065641 0.13613 
duong -0.091939 -0.031334 -0.059985 -0.019752 0.21472 -0.070719 -0.062735 0.025615 -0.063751 0.044806 -0.013421 0.18011 0.013412 -0.17271 -0.018578 -0.098616 0.22147 0.31088 -0.10447 -0.029957 0.11945 0.18674 0.065643 0.044594 -0.082085 0.06285 0.27324 0.13643 -0.075403 -0.12361 -0.039719 0.013644 0.10675 -0.0036253 -0.036455 0.028584 0.092591 -0.27821 -0.033236 -0.26348 -0.15856 -0.16605 -0.12042 -0.15347 0.13767 -0.15148 0.031928 0.20224 0.18147 -0.047036 -0.039961 0.084242 -0.0026388 0.12293 0.1557 -0.13557 0.018656 0.051694 0.16075 0.19369 0.24879 0.030901 0.14098 0.089364 0.070553 0.0039613 0.028572 -0.051172 -0.040829 -0.045314 -0.26075 -0.11505 0.20956 0.1795 0.14531 -0.072324 0.15023 0.11966 0.035046 -0.2176 -0.20491 0.063021 0.072616 -0.40775 -0.19982 -0.14723 0.097896 0.044471 -0.062668 0.026073 0.17843 -0.18899 0.27388 -0.0032773 -0.21238 0.17947 -0.116 0.13257 -0.044686 0.13849 
trung -0.066091 -0.017004 -0.089904 -0.012703 0.21315 -0.050251 -0.04841 0.026881 -0.071659 0.024074 -0.026049 0.19606 0.010771 -0.17943 -0.01189 -0.056982 0.21348 0.31427 -0.10669 -0.053291 0.13021 0.19977 0.089337 0.048474 -0.053983 0.066766 0.25877 0.13713 -0.07284 -0.12694 -0.034703 0.00069159 0.10013 -0.0087328 -0.035798 0.048732 0.083404 -0.26813 -0.023488 -0.25694 -0.13445 -0.17271 -0.13699 -0.15643 0.11214 -0.13979 0.031847 0.17767 0.17782 -0.02971 -0.044842 0.11288 0.011251 0.11785 0.16976 -0.13141 0.023995 0.067312 0.15582 0.15532 0.25793 0.033241 0.14051 0.10099 0.07518 0.001041 0.039602 -0.036446 -0.04691 0.0013923 -0.25035 -0.10687 0.20266 0.15793 0.14115 -0.070247 0.15161 0.13649 0.041046 -0.19141 -0.19558 0.069523 0.074755 -0.3746 -0.19834 -0.16432 0.1045 0.03512 -0.054348 0.036697 0.17478 -0.16468 0.27587 -0.0064138 -0.2095 0.17388 -0.11534 0.12537 -0.048045 0.14814 
lien -0.062562 -0.01294 -0.10198 -0.011881 0.21498 -0.038579 -0.042962 0.033111 -0.073043 -1.4784e-05 -0.024462 0.20363 0.011425 -0.18105 -0.01433 -0.035482 0.21847 0.32194 -0.12027 -0.058791 0.13296 0.21409 0.11325 0.02775 -0.041393 0.058012 0.25206 0.14088 -0.074111 -0.13762 -0.049143 -0.0029061 0.091197 -0.01317 -0.041701 0.061104 0.074115 -0.26823 -0.023342 -0.26177 -0.13401 -0.17176 -0.13905 -0.16608 0.09605 -0.12507 0.036263 0.15938 0.17903 -0.027903 -0.053274 0.12258 0.013257 0.12332 0.18208 -0.11527 0.021096 0.094106 0.14559 0.13414 0.26994 0.034437 0.13048 0.10872 0.072784 -0.0058877 0.040065 -0.018938 -0.052495 0.012836 -0.24739 -0.11591 0.20127 0.15224 0.12943 -0.063321 0.15753 0.14697 0.050341 -0.18767 -0.2013 0.066693 0.070383 -0.36429 -0.18901 -0.18045 0.11263 0.032411 -0.047648 0.042834 0.15955 -0.13791 0.27122 0.004861 -0.21297 0.17292 -0.11755 0.10494 -0.066473 0.14994 
cho -0.081772 -0.011934 -0.063696 -0.021359 0.2077 -0.059659 -0.061449 0.03492 -0.069454 0.028084 -0.023017 0.18077 0.0094765 -0.16633 -0.016454 -0.071745 0.21484 0.30413 -0.078767 -0.04192 0.13528 0.19443 0.080102 0.049586 -0.077693 0.070843 0.27651 0.13554 -0.075729 -0.12528 -0.042834 0.0024053 0.10329 0.0034299 -0.033944 0.034181 0.090174 -0.26816 -0.044682 -0.25164 -0.14402 -0.16835 -0.11904 -0.16295 0.11451 -0.14479 0.018259 0.19145 0.17622 -0.045352 -0.051469 0.11555 0.010323 0.12799 0.16902 -0.12488 0.010039 0.049232 0.1731 0.18455 0.28108 0.027932 0.13949 0.093063 0.080032 -0.00024291 0.029229 -0.046658 -0.042542 -0.01848 -0.25536 -0.11773 0.20183 0.16349 0.15236 -0.07161 0.15455 0.13719 0.046656 -0.19798 -0.1984 0.06294 0.063786 -0.39863 -0.22096 -0.18562 0.095693 0.049851 -0.075485 0.029974 0.17869 -0.18321 0.26351 -0.0064759 -0.23242 0.18044 -0.11056 0.12416 -0.049351 0.14173 
pho -0.11662 -0.05932 -0.055495 -0.0046909 0.19221 -0.0619 -0.066766 0.046914 -0.062808 0.030207 0.0079479 0.13211 0.0034058 -0.11374 -0.051151 -0.10887 0.2092 0.25755 -0.074621 -0.0061473 0.10697 0.15899 0.058865 0.037094 -0.10642 0.046088 0.25345 0.13858 -0.071023 -0.1164 -0.062816 -0.0048015 0.088948 0.034409 -0.015977 0.025871 0.096922 -0.2519 -0.026339 -0.26942 -0.15466 -0.096495 -0.061384 -0.1657 0.17536 -0.16931 -0.0035985 0.21102 0.16802 -0.049614 -0.013249 0.030558 -0.011065 0.095693 0.093411 -0.098861 0.024369 -0.00053998 0.18991 0.3298 0.27195 0.04079 0.18033 0.094226 0.037813 0.016953 0.02298 -0.060919 -0.017712 -0.084581 -0.23681 -0.13605 0.22798 0.17503 0.1259 -0.080659 0.15121 0.087459 0.043819 -0.23151 -0.20505 0.043028 0.09015 -0.41124 -0.20238 -0.15178 0.089754 0.024711 -0.099262 0.0253 0.17355 -0.25846 0.29276 0.033876 -0.19694 0.20071 -0.1294 0.15778 -0.069414 0.10043 
dong -0.097411 -0.034002 -0.061267 -0.013917 0.21112 -0.057818 -0.063874 0.037094 -0.052584 0.047553 -0.017316 0.16874 0.015178 -0.16909 -0.024717 -0.10215 0.20976 0.29055 -0.1096 -0.03445 0.11255 0.17786 0.06658 0.032646 -0.078662 0.046632 0.26535 0.13138 -0.080711 -0.12087 -0.055314 0.017619 0.10914 -0.00076876 -0.035682 0.032275 0.089867 -0.27256 -0.021679 -0.26196 -0.16001 -0.14691 -0.10727 -0.14981 0.14467 -0.14882 0.037848 0.20187 0.17305 -0.037962 -0.03631 0.067171 -0.0055937 0.11164 0.13597 -0.11871 0.019969 0.04972 0.16423 0.22054 0.23581 0.0321 0.14356 0.093435 0.058337 0.0045678 0.027648 -0.048429 -0.03402 -0.065729 -0.26385 -0.11773 0.21617 0.18307 0.13261 -0.079305 0.14772 0.11379 0.0408 -0.22293 -0.1956 0.064769 0.086695 -0.40353 -0.19944 -0.13747 0.095961 0.047908 -0.074106 0.027687 0.17172 -0.20436 0.27718 0.0063649 -0.1955 0.16966 -0.12576 0.1409 -0.051238 0.12571 
gan -0.082257 0.0013277 -0.059566 -0.025997 0.20162 -0.072683 -0.068088 0.028383 -0.086966 0.028132 -0.01412 0.19019 0.0089335 -0.15822 0.007265 -0.07277 0.22007 0.30179 -0.069485 -0.03341 0.13547 0.20109 0.065684 0.069679 -0.084157 0.086132 0.28998 0.12796 -0.075269 -0.12096 -0.027187 0.0070874 0.11264 0.0096917 -0.040314 0.021094 0.086543 -0.27992 -0.051646 -0.24286 -0.13813 -0.18463 -0.1244 -0.16116 0.1207 -0.15371 0.018013 0.1845 0.17625 -0.049786 -0.047855 0.12487 0.020887 0.14102 0.1807 -0.14026 0.0095206 0.038536 0.18834 0.19511 0.30074 0.02488 0.14169 0.093012 0.080815 -0.0080343 0.02783 -0.068207 -0.049851 -0.027588 -0.25307 -0.10682 0.20223 0.16853 0.17075 -0.061939 0.14997 0.13726 0.042358 -0.19277 -0.20025 0.060503 0.06784 -0.40455 -0.21403 -0.19255 0.10228 0.058388 -0.070014 0.030288 0.18793 -0.17138 0.24504 -0.019742 -0.24456 0.20005 -0.096752 0.11511 -0.022234 0.15372 
1 -0.11761 -0.064065 -0.056397 0.001492 0.18417 -0.065123 -0.065171 0.048191 -0.068397 0.0176 0.017993 0.12856 0.00058838 -0.10483 -0.033274 -0.11038 0.19867 0.27269 -0.079198 -0.0082509 0.10675 0.17285 0.071521 0.026786 -0.11137 0.045001 0.25749 0.15198 -0.072205 -0.11959 -0.063673 -0.0091569 0.091438 0.058482 -0.025997 0.020571 0.10325 -0.24885 -0.034639 -0.27281 -0.14805 -0.10785 -0.072026 -0.17906 0.18074 -0.16972 -0.0092337 0.21925 0.17939 -0.067251 -0.0019601 0.027304 -0.009915 0.10266 0.081715 -0.11419 0.039043 0.0059144 0.20491 0.33448 0.29447 0.046167 0.1937 0.10299 0.051738 0.021819 0.030672 -0.063662 -0.026342 -0.087238 -0.23686 -0.11632 0.24862 0.17405 0.12617 -0.07038 0.15019 0.097695 0.038505 -0.23856 -0.21786 0.031376 0.0929 -0.43224 -0.20518 -0.16358 0.093997 0.01668 -0.11124 0.029477 0.17656 -0.26056 0.31415 0.027479 -0.21223 0.2213 -0.13553 0.14883 -0.077999 0.093025 
khu -0.090266 -0.037484 -0.047506 -0.010933 0.20215 -0.074012 -0.05608 0.031214 -0.069561 0.025061 -0.01731 0.17917 0.0026099 -0.15187 -0.023462 -0.097472 0.22927 0.30734 -0.073133 -0.024809 0.12712 0.19681 0.056447 0.055421 -0.10054 0.071603 0.27417 0.13637 -0.070151 -0.12811 -0.04965 0.0015134 0.10045 0.024373 -0.032474 0.0224 0.086417 -0.27961 -0.040096 -0.25894 -0.13936 -0.16063 -0.10183 -0.17887 0.14371 -0.15723 -0.00039164 0.19325 0.17734 -0.051058 -0.024337 0.07844 0.0067786 0.12591 0.14777 -0.12532 0.013738 0.028838 0.18334 0.2382 0.28587 0.027903 0.14573 0.10298 0.06037 0.0059241 0.026901 -0.060052 -0.030349 -0.050838 -0.24328 -0.11011 0.20833 0.16639 0.13764 -0.065043 0.14702 0.11198 0.047003 -0.20519 -0.1985 0.047681 0.069476 -0.40668 -0.22405 -0.17983 0.10448 0.04469 -0.082404 0.042722 0.18089 -0.21855 0.2856 0.010682 -0.24689 0.20756 -0.11711 0.1321 -0.056398 0.13418 
lh: -0.06833 -0.02018 -0.085849 -0.015026 0.2133 -0.043274 -0.043934 0.036383 -0.069584 0.0090577 -0.016235 0.1843 0.0025434 -0.16899 -0.02098 -0.057583 0.21693 0.32267 -0.097697 -0.046097 0.12618 0.20641 0.10405 0.038128 -0.068966 0.069725 0.25565 0.14794 -0.07048 -0.12808 -0.045806 -0.014338 0.095204 -0.0056934 -0.032433 0.047921 0.094023 -0.27038 -0.030119 -0.26124 -0.13967 -0.16152 -0.12962 -0.17292 0.11354 -0.14026 0.022027 0.18259 0.17506 -0.038708 -0.052402 0.098677 0.016891 0.12215 0.16767 -0.13113 0.019798 0.063786 0.15973 0.16972 0.27858 0.036008 0.14863 0.10699 0.074559 0.001809 0.040329 -0.037796 -0.036411 -0.00059232 -0.25241 -0.11815 0.21333 0.14735 0.13153 -0.066569 0.15866 0.139 0.057386 -0.18878 -0.19739 0.060635 0.076695 -0.39442 -0.20861 -0.18404 0.10937 0.028416 -0.065469 0.047594 0.16365 -0.17212 0.28031 0.007064 -0.22051 0.18297 -0.11287 0.11691 -0.063352 0.13672 
huong -0.08355 -0.024103 -0.065504 -0.01948 0.2195 -0.063368 -0.058852 0.025671 -0.063316 0.049166 -0.011448 0.1903 0.014451 -0.18722 -0.013677 -0.093879 0.21833 0.32364 -0.11182 -0.039464 0.12358 0.18981 0.080457 0.039035 -0.078499 0.061819 0.27526 0.13969 -0.076862 -0.12708 -0.045082 0.010748 0.11479 -0.021866 -0.045444 0.035538 0.088623 -0.28293 -0.026117 -0.26518 -0.16137 -0.17833 -0.13402 -0.15134 0.13447 -0.14826 0.046416 0.20245 0.18732 -0.046278 -0.045007 0.091524 0.0045506 0.12071 0.16604 -0.13978 0.016117 0.066267 0.15704 0.17659 0.24519 0.035181 0.14463 0.099534 0.077032 0.0066766 0.033292 -0.047511 -0.039677 -0.03555 -0.26846 -0.10863 0.21277 0.18004 0.13817 -0.070595 0.15838 0.12273 0.039782 -0.21627 -0.20787 0.075351 0.068737 -0.40709 -0.19403 -0.1434 0.099379 0.042286 -0.058336 0.02583 0.17891 -0.17418 0.28253 -0.0081184 -0.2172 0.17557 -0.11475 0.13404 -0.044724 0.14649 
noi -0.087874 -0.050684 -0.058899 -0.010951 0.19998 -0.051993 -0.048517 0.0375 -0.071492 0.0091623 -0.022601 0.15767 -0.0048848 -0.1328 -0.040884 -0.090008 0.23062 0.29422 -0.081928 -0.022549 0.11839 0.1944 0.065429 0.05518 -0.10478 0.064528 0.26142 0.1336 -0.074079 -0.12654 -0.063414 -0.015417 0.097141 0.020587 -0.031689 0.031933 0.096236 -0.26735 -0.033447 -0.26522 -0.13633 -0.12311 -0.08182 -0.17787 0.1488 -0.14561 -0.0071097 0.19042 0.17135 -0.043697 -0.021135 0.059534 0.0038017 0.12215 0.12564 -0.118 0.019744 0.029406 0.16829 0.25919 0.27915 0.039607 0.14037 0.10588 0.044297 0.0024212 0.024435 -0.04621 -0.011697 -0.058442 -0.23894 -0.12333 0.21771 0.15389 0.12139 -0.074636 0.14813 0.11283 0.058766 -0.20365 -0.1999 0.041812 0.080376 -0.41363 -0.21497 -0.16962 0.11347 0.028686 -0.079274 0.056882 0.1603 -0.2138 0.29255 0.026275 -0.21649 0.19337 -0.11641 0.12158 -0.07657 0.12285 
ho -0.082226 -0.046384 -0.038556 -0.010604 0.19264 -0.062391 -0.0562 0.037327 -0.080551 0.037794 -0.02384 0.14729 0.0043451 -0.12829 -0.018034 -0.096896 0.22483 0.26714 -0.080768 -0.011557 0.12683 0.16131 0.038315 0.073682 -0.092635 0.074876 0.2508 0.12986 -0.072043 -0.1172 -0.044826 0.0050932 0.10228 0.017853 -0.027975 0.025684 0.091805 -0.26134 -0.04114 -0.25193 -0.14701 -0.13523 -0.086825 -0.15961 0.14324 -0.15006 0.0040069 0.19666 0.1745 -0.039668 -0.025928 0.068659 -0.00062624 0.11407 0.13825 -0.10776 0.0082023 0.0227 0.17791 0.25369 0.27514 0.024644 0.14296 0.098851 0.045915 0.0053086 0.030433 -0.055038 -0.020638 -0.080477 -0.2392 -0.11927 0.2176 0.16904 0.14294 -0.073672 0.15374 0.099677 0.043272 -0.21335 -0.19145 0.051016 0.069987 -0.40697 -0.22233 -0.16432 0.095948 0.049476 -0.087725 0.032219 0.17335 -0.21138 0.26917 0.0085471 -0.2094 0.18911 -0.10497 0.13455 -0.052809 0.12649 
do, -0.085384 -0.0096576 -0.077876 -0.020947 0.20134 -0.049291 -0.057991 0.044212 -0.049515 0.022719 -0.013359 0.17818 0.017922 -0.15813 -0.021524 -0.066276 0.20767 0.29708 -0.077657 -0.051777 0.12382 0.19505 0.094836 0.035671 -0.07881 0.057719 0.26877 0.13258 -0.074148 -0.1285 -0.041298 -0.0021247 0.099474 0.011488 -0.030056 0.039237 0.090704 -0.26688 -0.032649 -0.24807 -0.13955 -0.16237 -0.11992 -0.16845 0.11426 -0.13889 0.01971 0.18344 0.16306 -0.039078 -0.053842 0.10691 0.0051815 0.13869 0.15451 -0.13061 0.022075 0.047543 0.17238 0.19099 0.28428 0.032998 0.15562 0.089545 0.082678 -0.013635 0.033221 -0.05079 -0.04523 -0.018499 -0.2487 -0.1138 0.20106 0.15479 0.15194 -0.065668 0.14783 0.13864 0.046121 -0.20131 -0.18729 0.060176 0.076273 -0.39365 -0.21124 -0.18418 0.091831 0.034841 -0.074066 0.035344 0.16701 -0.18532 0.25473 -0.0030666 -0.22329 0.17847 -0.11275 0.12194 -0.053668 0.12339 
moi -0.074873 -0.039713 -0.075581 -0.0030215 0.20363 -0.052945 -0.04064 0.038636 -0.069634 0.0015777 -0.024567 0.16793 -0.012826 -0.14754 -0.034979 -0.073275 0.2307 0.30063 -0.090744 -0.031031 0.13097 0.1951 0.087339 0.049198 -0.074642 0.060647 0.24868 0.14033 -0.071749 -0.13846 -0.057483 -0.01986 0.094654 0.016915 -0.033172 0.038977 0.095889 -0.26466 -0.035266 -0.26333 -0.12644 -0.13609 -0.10208 -0.1757 0.13646 -0.1352 0.0030252 0.18327 0.17329 -0.03682 -0.022249 0.070357 0.010702 0.11888 0.13404 -0.11305 0.028086 0.051723 0.16221 0.21737 0.28466 0.037478 0.14661 0.11127 0.050736 0.010075 0.038008 -0.038059 -0.016509 -0.028845 -0.2302 -0.11744 0.21427 0.14991 0.11216 -0.057207 0.15274 0.11455 0.062783 -0.19079 -0.20544 0.046415 0.067067 -0.38642 -0.21426 -0.17656 0.11657 0.020832 -0.070127 0.066574 0.15768 -0.18051 0.28902 0.032081 -0.21532 0.18531 -0.11154 0.11473 -0.079651 0.13337 
3 -0.099404 -0.044842 -0.069553 -0.0090653 0.2038 -0.045185 -0.051674 0.047838 -0.059589 0.022263 -0.00072466 0.15629 0.001176 -0.12415 -0.042319 -0.099158 0.19862 0.27794 -0.079525 -0.021835 0.11746 0.1736 0.073297 0.035956 -0.10014 0.043667 0.25284 0.14059 -0.081975 -0.12478 -0.066271 -0.0072567 0.093428 0.028269 -0.027852 0.030749 0.09651 -0.25953 -0.038075 -0.26837 -0.15541 -0.12614 -0.0748 -0.17134 0.16309 -0.16747 0.0035595 0.20409 0.17232 -0.04447 -0.030467 0.053211 0.0051365 0.09777 0.1071 -0.11673 0.03341 0.025306 0.17687 0.27962 0.27411 0.041362 0.17908 0.10436 0.054324 0.007255 0.028976 -0.05724 -0.027339 -0.072765 -0.24366 -0.12022 0.23015 0.17402 0.12307 -0.074569 0.15353 0.1029 0.042424 -0.21905 -0.20108 0.045944 0.092959 -0.41928 -0.21048 -0.15808 0.10415 0.022722 -0.093716 0.039044 0.17084 -0.23325 0.29524 0.02162 -0.20839 0.19771 -0.12891 0.14444 -0.066487 0.1 
chu -0.066702 -0.013192 -0.079055 -0.024225 0.20486 -0.050561 -0.045391 0.032249 -0.07851 0.025198 -0.019997 0.17904 0.0058972 -0.16133 -0.017815 -0.047116 0.20624 0.29869 -0.088159 -0.046728 0.134 0.1931 0.097463 0.04177 -0.051211 0.063939 0.25689 0.13631 -0.070268 -0.12599 -0.046549 0.0050885 0.09284 0.0021471 -0.024942 0.048258 0.086265 -0.26196 -0.036769 -0.24249 -0.14379 -0.16504 -0.12787 -0.16532 0.099308 -0.13076 0.020613 0.18088 0.1737 -0.035992 -0.047527 0.12214 0.0081311 0.12371 0.16931 -0.11101 0.019436 0.071268 0.16009 0.1573 0.27522 0.031674 0.13663 0.10587 0.085481 0.004668 0.037443 -0.026234 -0.046727 3.8332e-05 -0.23782 -0.11035 0.18966 0.144 0.13464 -0.073721 0.1497 0.13991 0.049322 -0.17608 -0.18845 0.057982 0.066885 -0.3686 -0.21157 -0.18836 0.09882 0.039429 -0.065944 0.035345 0.16188 -0.1566 0.26161 -0.0050513 -0.22801 0.16716 -0.11071 0.12538 -0.062954 0.13837 
nam -0.080639 -0.04043 -0.055574 -0.0088653 0.19993 -0.053066 -0.05339 0.031751 -0.065485 0.020135 -0.011188 0.16082 -0.0042566 -0.14096 -0.022751 -0.086482 0.22381 0.29756 -0.0765 -0.019373 0.12281 0.18772 0.06372 0.060269 -0.10509 0.075856 0.26617 0.13274 -0.071696 -0.13116 -0.052737 0.00021646 0.093293 0.014402 -0.031447 0.022989 0.10225 -0.26996 -0.035468 -0.26352 -0.14657 -0.14125 -0.092133 -0.16936 0.13929 -0.14298 0.0039746 0.19677 0.169 -0.050192 -0.030919 0.067341 0.00076139 0.12656 0.1337 -0.12129 0.01621 0.032296 0.16808 0.24576 0.27956 0.034977 0.15064 0.097156 0.053047 0.0050751 0.033496 -0.057722 -0.021641 -0.056596 -0.23682 -0.11146 0.21479 0.1588 0.13192 -0.075018 0.14996 0.11517 0.049022 -0.20496 -0.20154 0.04382 0.070597 -0.41518 -0.21007 -0.17313 0.099041 0.034777 -0.071806 0.044774 0.16931 -0.21044 0.27885 0.0094786 -0.21594 0.18839 -0.10944 0.12506 -0.062372 0.12945 
thue -0.075699 -0.017948 -0.063967 -0.0041936 0.19628 -0.060593 -0.044145 0.030631 -0.083041 0.01121 -0.02022 0.17875 -0.0047283 -0.15379 -0.017809 -0.069067 0.22511 0.31396 -0.089277 -0.037361 0.12899 0.19176 0.086701 0.050447 -0.06652 0.071873 0.25703 0.14154 -0.064206 -0.13389 -0.045025 -0.0009973 0.10212 -0.00051676 -0.033445 0.045577 0.087962 -0.27462 -0.029441 -0.25287 -0.13526 -0.15652 -0.11637 -0.17315 0.11226 -0.13047 0.0080844 0.1783 0.17889 -0.038257 -0.040591 0.099687 0.013481 0.11949 0.17005 -0.11405 0.014929 0.047003 0.16301 0.18944 0.27558 0.031837 0.14433 0.097611 0.074279 0.0089784 0.034471 -0.041781 -0.027645 -0.021151 -0.2444 -0.10683 0.20863 0.15128 0.12376 -0.067442 0.15147 0.12738 0.049786 -0.18652 -0.20507 0.054811 0.063386 -0.39587 -0.20791 -0.17768 0.094208 0.03441 -0.069369 0.0479 0.1706 -0.17702 0.27785 0.0094379 -0.22847 0.19722 -0.10406 0.12187 -0.069764 0.13333 
xay -0.091403 -0.04271 -0.065027 -0.014691 0.21508 -0.045307 -0.049368 0.04312 -0.053758 0.018495 -0.013657 0.1604 0.0029277 -0.14167 -0.042284 -0.099343 0.22962 0.28877 -0.090153 -0.034699 0.11565 0.18772 0.071827 0.038309 -0.096733 0.061477 0.27083 0.12064 -0.077235 -0.12905 -0.060641 -0.00541 0.082329 0.014719 -0.027321 0.034811 0.096634 -0.26918 -0.034883 -0.26938 -0.14035 -0.12021 -0.090097 -0.1668 0.15735 -0.15689 0.011881 0.19685 0.15876 -0.03864 -0.038263 0.059728 -0.0046596 0.11032 0.1217 -0.11382 0.016017 0.034654 0.17789 0.25833 0.26199 0.033251 0.14627 0.097032 0.039763 -0.00099355 0.021801 -0.049875 -0.013708 -0.067323 -0.24293 -0.13654 0.21168 0.16373 0.12245 -0.079154 0.15295 0.11124 0.054119 -0.21725 -0.19568 0.049343 0.086924 -0.41875 -0.21998 -0.16774 0.098191 0.034347 -0.082765 0.047938 0.1594 -0.22125 0.28644 0.022386 -0.2008 0.17736 -0.12812 0.13352 -0.069996 0.11557 
o -0.079007 -0.037392 -0.065322 -0.01615 0.21561 -0.055023 -0.052768 0.030287 -0.072505 0.022472 -0.016216 0.16293 0.0099374 -0.1583 -0.023051 -0.092739 0.22322 0.31867 -0.077842 -0.040931 0.12239 0.18988 0.080515 0.054344 -0.09279 0.060227 0.27358 0.13571 -0.075097 -0.13392 -0.049833 -0.0027863 0.082966 0.0086409 -0.028087 0.02965 0.094481 -0.27758 -0.047912 -0.25474 -0.14055 -0.14208 -0.11416 -0.16337 0.12814 -0.15283 0.021632 0.19368 0.17063 -0.051245 -0.037862 0.0839 0.012308 0.1255 0.1316 -0.12769 0.026471 0.046616 0.15852 0.22306 0.26861 0.034799 0.15121 0.1085 0.049939 0.012353 0.024904 -0.049397 -0.034293 -0.043733 -0.25336 -0.13113 0.2089 0.14908 0.14068 -0.067591 0.14869 0.12524 0.048448 -0.20088 -0.19762 0.036081 0.066147 -0.4236 -0.22498 -0.18239 0.093464 0.039521 -0.066402 0.037247 0.16447 -0.19966 0.28077 0.011045 -0.21722 0.18025 -0.12178 0.11245 -0.069434 0.12624 
4 -0.098105 -0.050634 -0.065647 -0.02269 0.20583 -0.045288 -0.054798 0.046087 -0.052762 0.033917 -0.0048255 0.15083 0.011889 -0.12835 -0.044381 -0.098326 0.22227 0.28179 -0.089794 -0.031131 0.12047 0.17884 0.070435 0.033458 -0.10292 0.052714 0.26389 0.13683 -0.086188 -0.12942 -0.058407 -0.0025215 0.08242 0.020501 -0.017445 0.030911 0.090066 -0.26037 -0.038864 -0.27356 -0.15327 -0.1249 -0.077349 -0.16895 0.1497 -0.16172 0.006415 0.20398 0.17346 -0.042661 -0.039861 0.064449 -0.0042655 0.11943 0.11099 -0.1281 0.0228 0.029858 0.18275 0.26965 0.26724 0.034204 0.16333 0.10479 0.047494 -0.0034189 0.036864 -0.055076 -0.020701 -0.070569 -0.25621 -0.12832 0.22843 0.16111 0.12732 -0.074879 0.14808 0.11141 0.044268 -0.22324 -0.19924 0.045095 0.082263 -0.42019 -0.2126 -0.1625 0.10051 0.024212 -0.085332 0.029308 0.16688 -0.2155 0.28857 0.022451 -0.20273 0.1821 -0.13536 0.13506 -0.061354 0.1065 
tri -0.080586 -0.0002776 -0.070942 -0.014124 0.20038 -0.061573 -0.058093 0.024097 -0.063876 0.0083696 -0.013456 0.19095 0.0082307 -0.16801 -0.0018953 -0.062901 0.20798 0.3113 -0.07395 -0.048901 0.13398 0.19895 0.074632 0.057823 -0.08364 0.078489 0.27414 0.12737 -0.07796 -0.11852 -0.031062 -0.005669 0.10678 0.0071535 -0.032199 0.021048 0.088175 -0.26989 -0.028561 -0.2548 -0.12467 -0.17781 -0.12711 -0.1583 0.10938 -0.13686 0.010643 0.16534 0.17199 -0.048533 -0.0541 0.12026 0.0095896 0.14171 0.18092 -0.14874 0.011375 0.047416 0.17552 0.17118 0.29813 0.041866 0.14619 0.092082 0.084194 -0.0010721 0.033708 -0.062082 -0.042891 -0.006744 -0.2522 -0.10489 0.19584 0.15526 0.14785 -0.059351 0.16345 0.1522 0.042915 -0.18314 -0.19795 0.059218 0.056038 -0.40236 -0.21391 -0.19966 0.099474 0.035337 -0.071348 0.04207 0.18791 -0.18041 0.26807 -0.015235 -0.23826 0.20613 -0.09535 0.1103 -0.04433 0.14841 
mien -0.071414 -0.0043787 -0.11104 -0.016346 0.21988 -0.038239 -0.043385 0.03674 -0.075726 -0.0030525 -0.014663 0.20412 0.014423 -0.17564 -0.018841 -0.038237 0.21337 0.31276 -0.12077 -0.065325 0.12837 0.20936 0.1174 0.021133 -0.039144 0.054029 0.25469 0.13712 -0.076216 -0.1314 -0.047091 -0.0030602 0.091512 -0.0072953 -0.034763 0.06743 0.072913 -0.26871 -0.015161 -0.25933 -0.13298 -0.16793 -0.13958 -0.16399 0.098199 -0.13643 0.036338 0.16473 0.1763 -0.024697 -0.051917 0.12305 0.013154 0.12454 0.17831 -0.12291 0.022706 0.090166 0.15428 0.13441 0.26556 0.036266 0.13862 0.10799 0.077208 -0.0052741 0.039963 -0.024444 -0.049342 0.020565 -0.25412 -0.11555 0.2033 0.15345 0.1364 -0.062994 0.15618 0.1492 0.049393 -0.19374 -0.19916 0.065605 0.081666 -0.36624 -0.1905 -0.1752 0.11075 0.029164 -0.05129 0.042683 0.1553 -0.13136 0.26865 0.0045567 -0.20476 0.17183 -0.11813 0.10459 -0.06315 0.14395 
van -0.087721 -0.025739 -0.060945 -0.0099748 0.20748 -0.066117 -0.061572 0.029877 -0.078868 0.028387 -0.016078 0.17687 0.0045927 -0.15432 -0.016587 -0.095146 0.232 0.30304 -0.079559 -0.028787 0.12956 0.19141 0.059404 0.061508 -0.090799 0.073035 0.27916 0.12718 -0.074167 -0.1225 -0.041952 0.014805 0.10447 0.0089222 -0.026889 0.03053 0.092892 -0.28497 -0.039359 -0.25752 -0.1422 -0.15319 -0.10766 -0.16443 0.12967 -0.152 0.015198 0.19922 0.17736 -0.045209 -0.035235 0.090561 0.0065666 0.1208 0.16083 -0.11591 0.017687 0.045133 0.18286 0.23218 0.27623 0.02901 0.14772 0.098796 0.066184 -7.9146e-05 0.029946 -0.063036 -0.024398 -0.052049 -0.25266 -0.11816 0.21283 0.17071 0.14631 -0.072855 0.15708 0.11588 0.04952 -0.2093 -0.19909 0.055817 0.075957 -0.41258 -0.2218 -0.17507 0.10578 0.052675 -0.074252 0.045629 0.17551 -0.20066 0.27174 0.0044929 -0.22203 0.19414 -0.10856 0.12646 -0.052349 0.13669 
va -0.080817 -0.024855 -0.070149 -0.0081015 0.20205 -0.063459 -0.049645 0.024293 -0.083233 0.012384 -0.012282 0.17376 -0.0019927 -0.162 -0.015199 -0.084992 0.22172 0.31699 -0.079136 -0.024929 0.12189 0.19709 0.07348 0.057175 -0.08685 0.066629 0.26542 0.13378 -0.074563 -0.12744 -0.048551 -0.0040903 0.097626 0.01398 -0.048039 0.021514 0.099428 -0.27154 -0.045696 -0.26493 -0.13399 -0.14766 -0.10772 -0.1595 0.13377 -0.14155 0.015119 0.1917 0.17232 -0.054045 -0.033212 0.083215 0.014539 0.12677 0.14242 -0.12336 0.01748 0.044188 0.17385 0.22345 0.27948 0.033987 0.1507 0.10124 0.059443 0.012478 0.036184 -0.05007 -0.032182 -0.044948 -0.23852 -0.10964 0.21679 0.15173 0.13581 -0.054025 0.14628 0.1185 0.049142 -0.20313 -0.20623 0.053749 0.063679 -0.40624 -0.21429 -0.1738 0.10991 0.033459 -0.06341 0.054897 0.16923 -0.19044 0.27279 0.011375 -0.218 0.19119 -0.1066 0.1094 -0.061178 0.13052 
he -0.067303 -0.021918 -0.095769 -0.0059444 0.20669 -0.049732 -0.03443 0.02802 -0.071878 0.011161 -0.01598 0.19913 0.0091079 -0.17437 -0.01616 -0.048737 0.21826 0.34169 -0.11019 -0.051247 0.12867 0.20346 0.10343 0.033368 -0.060344 0.065875 0.25424 0.1615 -0.062187 -0.13871 -0.04592 -0.012759 0.089853 -0.0070742 -0.032026 0.058924 0.091653 -0.27781 -0.027447 -0.2588 -0.12454 -0.16461 -0.13998 -0.18089 0.10479 -0.12853 0.025395 0.17226 0.19261 -0.038475 -0.05175 0.105 0.018024 0.12149 0.16898 -0.12301 0.032574 0.078656 0.15313 0.15789 0.27848 0.030382 0.14952 0.12051 0.064078 0.012436 0.03939 -0.03017 -0.040431 0.0011127 -0.24046 -0.11735 0.21117 0.15515 0.12464 -0.062439 0.14576 0.1362 0.048817 -0.1923 -0.20462 0.060936 0.073407 -0.38222 -0.21206 -0.19056 0.11372 0.025081 -0.061954 0.054392 0.16093 -0.15139 0.28895 0.015388 -0.22434 0.17778 -0.11469 0.1132 -0.072795 0.13869 
cau -0.090869 -0.044339 -0.051957 -0.019781 0.21475 -0.054175 -0.055058 0.040598 -0.071446 0.024624 -0.030719 0.15998 0.0021736 -0.13805 -0.035178 -0.092002 0.23857 0.29626 -0.079257 -0.025745 0.13021 0.19374 0.068342 0.068683 -0.10396 0.080667 0.26937 0.13258 -0.075146 -0.12673 -0.052701 -0.0077915 0.090263 0.025343 -0.028774 0.034212 0.096814 -0.27807 -0.042652 -0.26191 -0.14004 -0.13673 -0.081887 -0.18033 0.14603 -0.153 0.0077751 0.20333 0.16206 -0.040559 -0.031503 0.07429 0.0045857 0.1262 0.13584 -0.12254 0.015437 0.026586 0.17572 0.25767 0.27937 0.033573 0.13811 0.093712 0.046471 -0.010095 0.020986 -0.059204 -0.020299 -0.062624 -0.24057 -0.12363 0.20827 0.16338 0.14486 -0.072731 0.1511 0.10215 0.053894 -0.2067 -0.20229 0.041616 0.072995 -0.42698 -0.21995 -0.17867 0.096279 0.034202 -0.077238 0.047673 0.17014 -0.22037 0.27839 0.014108 -0.22409 0.19256 -0.12037 0.12202 -0.067111 0.12623 
tu -0.092933 -0.038941 -0.072622 -0.00091981 0.19531 -0.040367 -0.04884 0.033658 -0.073311 0.021349 -0.0096104 0.17124 -0.0044366 -0.1414 -0.020431 -0.078124 0.21348 0.30039 -0.083474 -0.02611 0.10678 0.18908 0.082748 0.049989 -0.097954 0.058669 0.2509 0.14424 -0.073259 -0.13473 -0.060921 -0.011637 0.1048 0.016206 -0.031573 0.039374 0.1048 -0.26458 -0.018648 -0.27098 -0.13976 -0.1327 -0.098679 -0.16759 0.14474 -0.1458 0.0050917 0.19287 0.18041 -0.047873 -0.040369 0.072114 0.0095927 0.12577 0.12741 -0.12004 0.025254 0.026411 0.16986 0.2354 0.2715 0.041884 0.15771 0.098501 0.049636 0.0011965 0.036493 -0.05019 -0.027997 -0.048886 -0.24625 -0.11337 0.23255 0.15936 0.13291 -0.073104 0.15435 0.12801 0.047173 -0.21128 -0.19423 0.052001 0.089614 -0.41495 -0.21407 -0.16921 0.11378 0.027218 -0.076442 0.048736 0.16739 -0.20907 0.28698 0.015098 -0.21063 0.19756 -0.11573 0.13238 -0.071489 0.12687 
5 -0.094791 -0.037657 -0.07706 -0.013044 0.20593 -0.049828 -0.055583 0.057476 -0.054037 0.017525 -0.01244 0.15124 0.013459 -0.12245 -0.038362 -0.089579 0.21509 0.27687 -0.088297 -0.038574 0.10951 0.17735 0.078118 0.035065 -0.10218 0.063285 0.27197 0.13777 -0.084719 -0.12806 -0.059091 -0.0069602 0.087944 0.033882 -0.028434 0.037241 0.10091 -0.25141 -0.040921 -0.26548 -0.1374 -0.12325 -0.081126 -0.17436 0.16155 -0.1618 0.0035579 0.19703 0.16607 -0.050307 -0.030844 0.065101 -0.00083907 0.12096 0.11654 -0.12641 0.025455 0.023182 0.18257 0.26767 0.27646 0.030805 0.15996 0.095264 0.046304 -0.006446 0.027219 -0.052254 -0.025831 -0.061936 -0.24339 -0.13545 0.22326 0.15765 0.12791 -0.069098 0.15072 0.11329 0.048688 -0.22036 -0.19004 0.034869 0.084807 -0.42154 -0.22101 -0.16887 0.094216 0.024694 -0.092278 0.039752 0.15805 -0.22969 0.2866 0.021891 -0.20146 0.18028 -0.13148 0.13346 -0.067967 0.10102 
tel. -0.071314 -0.017922 -0.085133 -0.016261 0.20993 -0.045249 -0.038505 0.037584 -0.06481 0.0076015 -0.013908 0.18169 0.0052393 -0.16258 -0.022268 -0.057703 0.21761 0.31977 -0.092009 -0.051289 0.12765 0.19462 0.099878 0.040136 -0.071396 0.063918 0.25858 0.13845 -0.070371 -0.12735 -0.047366 -0.013726 0.093748 -0.0049354 -0.028514 0.04532 0.090394 -0.26232 -0.032851 -0.25893 -0.13238 -0.15313 -0.12143 -0.17354 0.11472 -0.13828 0.015591 0.17593 0.17565 -0.040127 -0.054365 0.09796 0.0078884 0.12669 0.15338 -0.12831 0.023064 0.064426 0.15867 0.17976 0.27397 0.035305 0.14765 0.1039 0.072064 0.001099 0.043356 -0.039841 -0.032712 -0.0060597 -0.24407 -0.11406 0.21038 0.15014 0.13234 -0.066336 0.15532 0.13245 0.049557 -0.19191 -0.19048 0.052815 0.073557 -0.39107 -0.20462 -0.18053 0.10126 0.026543 -0.062585 0.045901 0.15825 -0.17147 0.27463 0.0056562 -0.22188 0.17875 -0.10761 0.1194 -0.064687 0.12984 
x -0.097779 -0.035177 -0.072576 -0.01744 0.21471 -0.039738 -0.051147 0.04686 -0.042973 0.029041 -0.010768 0.15576 0.021818 -0.15226 -0.04954 -0.10416 0.22705 0.28825 -0.099975 -0.042038 0.11191 0.1701 0.073209 0.031587 -0.088253 0.046829 0.28149 0.12521 -0.072341 -0.13034 -0.054946 0.011694 0.087544 0.012441 -0.021155 0.042391 0.092916 -0.26845 -0.034332 -0.25978 -0.15014 -0.12049 -0.096169 -0.17182 0.15288 -0.16284 0.0169 0.19402 0.17342 -0.023852 -0.041353 0.060548 -0.016857 0.10937 0.12136 -0.10668 0.020091 0.045104 0.17305 0.25305 0.25113 0.025636 0.15787 0.10311 0.049523 -0.0097152 0.032475 -0.055648 -0.026227 -0.066651 -0.24934 -0.14446 0.21667 0.16852 0.12201 -0.081816 0.14289 0.10041 0.046159 -0.22232 -0.18556 0.050137 0.088503 -0.40964 -0.22619 -0.16122 0.094296 0.0397 -0.088832 0.037003 0.15825 -0.21803 0.27616 0.021368 -0.19345 0.16218 -0.13704 0.13975 -0.064399 0.10678 
san -0.099283 -0.043384 -0.059089 -0.0042515 0.19552 -0.065327 -0.068388 0.034883 -0.074419 0.0095715 -0.0039808 0.16594 -0.0065033 -0.12555 -0.025203 -0.091977 0.21611 0.30259 -0.071762 -0.017473 0.12068 0.19715 0.068223 0.062646 -0.10839 0.064065 0.26156 0.14441 -0.072615 -0.125 -0.043273 -0.019513 0.11165 0.030494 -0.034387 0.03024 0.097443 -0.27046 -0.035621 -0.26364 -0.14019 -0.13829 -0.089997 -0.17111 0.14065 -0.15408 0.0017586 0.18636 0.17042 -0.056394 -0.027251 0.069239 0.010281 0.13276 0.13687 -0.12264 0.024679 0.018145 0.1885 0.26111 0.29981 0.040007 0.16405 0.10316 0.065104 0.008916 0.02348 -0.069389 -0.025455 -0.048472 -0.24142 -0.1045 0.22047 0.16501 0.14235 -0.069633 0.15943 0.1177 0.047319 -0.20952 -0.2093 0.044937 0.083978 -0.4148 -0.20962 -0.18332 0.10961 0.030463 -0.075768 0.048044 0.18486 -0.21354 0.27988 0.015737 -0.23223 0.20869 -0.10392 0.12137 -0.053163 0.12248 
cach -0.091943 -0.031979 -0.057128 -0.018454 0.20187 -0.069943 -0.05408 0.028617 -0.074341 0.020546 -0.010769 0.16654 0.0063314 -0.14643 -0.01922 -0.094742 0.22432 0.30869 -0.076667 -0.02695 0.12893 0.18501 0.065315 0.06159 -0.09778 0.067391 0.27155 0.13639 -0.071328 -0.1266 -0.039432 -0.0024422 0.088308 0.018134 -0.033405 0.02726 0.095613 -0.26907 -0.047643 -0.26158 -0.1366 -0.14979 -0.095106 -0.1709 0.13874 -0.14977 0.011661 0.19523 0.17002 -0.052609 -0.032856 0.089147 0.0084636 0.11924 0.1435 -0.12514 0.016166 0.029397 0.17908 0.23226 0.28582 0.026615 0.15551 0.083905 0.058756 -0.0028909 0.024353 -0.068526 -0.035503 -0.051107 -0.23921 -0.11839 0.207 0.16148 0.14774 -0.066923 0.14938 0.11429 0.042339 -0.20353 -0.20078 0.049095 0.068884 -0.41402 -0.20697 -0.1781 0.10002 0.038888 -0.062879 0.034018 0.18537 -0.20861 0.2756 0.0069217 -0.22891 0.19565 -0.11339 0.11912 -0.048362 0.13922 
kinh -0.085025 -0.016093 -0.06755 -0.0068899 0.20313 -0.061596 -0.056208 0.034005 -0.0782 0.014703 -0.021711 0.17713 0.002042 -0.14844 0.0014881 -0.067335 0.21395 0.32191 -0.077107 -0.021924 0.13022 0.19308 0.085738 0.05246 -0.087956 0.075439 0.27708 0.14651 -0.068185 -0.13473 -0.035536 -0.0061424 0.11475 0.017268 -0.039321 0.032472 0.096634 -0.27976 -0.03967 -0.26816 -0.14324 -0.16603 -0.1161 -0.16985 0.12517 -0.14194 0.0096453 0.18851 0.18163 -0.050324 -0.04287 0.087212 0.019265 0.13573 0.16165 -0.13266 0.024201 0.039779 0.17043 0.20993 0.29035 0.037536 0.15438 0.092209 0.081236 0.010962 0.041479 -0.057158 -0.047671 -0.033588 -0.2373 -0.10138 0.22211 0.15992 0.15043 -0.054941 0.15033 0.1378 0.043636 -0.20384 -0.20362 0.053569 0.071349 -0.40492 -0.20928 -0.18869 0.10732 0.032605 -0.075013 0.043385 0.17711 -0.18738 0.26834 0.0094302 -0.23057 0.199 -0.10267 0.11755 -0.051787 0.12941 
cua -0.08819 -0.045717 -0.05812 -0.010829 0.19371 -0.048996 -0.049402 0.037992 -0.070936 0.010743 -0.017927 0.16451 -0.0078147 -0.1405 -0.030287 -0.089855 0.22896 0.30627 -0.078656 -0.029745 0.12119 0.19212 0.066035 0.058905 -0.096143 0.066955 0.26361 0.13754 -0.071506 -0.13373 -0.055244 -0.0085102 0.101 0.022066 -0.033676 0.029385 0.098466 -0.26896 -0.036904 -0.26263 -0.13896 -0.13879 -0.094863 -0.17368 0.14461 -0.14287 0.0018541 0.18724 0.1707 -0.054183 -0.031125 0.068594 0.0063814 0.12609 0.13372 -0.11841 0.023529 0.031862 0.17293 0.25097 0.28451 0.03925 0.15186 0.10689 0.054164 0.0063958 0.033681 -0.056279 -0.020813 -0.061685 -0.24253 -0.11683 0.22047 0.15834 0.12438 -0.069957 0.15505 0.10874 0.051087 -0.20351 -0.20588 0.045106 0.06975 -0.42019 -0.21856 -0.17448 0.1042 0.025274 -0.07356 0.053535 0.1654 -0.21028 0.28835 0.020692 -0.22192 0.19405 -0.11069 0.12181 -0.06986 0.1158 
thuong -0.070265 -0.013539 -0.063825 -0.0137 0.20625 -0.068547 -0.053649 0.019492 -0.074965 0.035934 -0.016817 0.2005 0.0069758 -0.18728 -0.0042585 -0.075038 0.21951 0.33542 -0.10286 -0.040876 0.12743 0.19346 0.088319 0.046111 -0.067878 0.069167 0.26572 0.14647 -0.072899 -0.12998 -0.03818 0.0038656 0.11618 -0.024328 -0.045519 0.038449 0.085004 -0.27928 -0.029217 -0.25493 -0.15223 -0.18799 -0.14051 -0.15815 0.11349 -0.13417 0.038494 0.18816 0.19151 -0.045255 -0.046127 0.11006 0.014747 0.1232 0.18686 -0.13634 0.013074 0.06806 0.15078 0.14598 0.25478 0.036211 0.13686 0.099311 0.088044 0.0093872 0.037322 -0.041477 -0.040869 -0.011017 -0.26036 -0.098363 0.2044 0.16761 0.1369 -0.065647 0.15394 0.13406 0.040015 -0.19697 -0.20886 0.074285 0.057865 -0.39129 -0.18852 -0.15672 0.097897 0.043042 -0.055778 0.031674 0.17887 -0.15458 0.2771 -0.011177 -0.231 0.18584 -0.10268 0.12436 -0.045801 0.15427 
cong -0.092251 -0.038807 -0.05367 -0.0075912 0.19601 -0.066746 -0.060799 0.02934 -0.068278 0.031911 -0.0099332 0.16465 0.0045299 -0.15035 -0.0152 -0.10164 0.20712 0.29616 -0.097717 -0.024726 0.11234 0.1808 0.066911 0.049412 -0.089297 0.052637 0.25366 0.14283 -0.07989 -0.11757 -0.046677 2.3226e-05 0.11225 0.010663 -0.040173 0.023209 0.088872 -0.25483 -0.031035 -0.26288 -0.15211 -0.1506 -0.099363 -0.14635 0.14724 -0.14508 0.021858 0.1964 0.17088 -0.05471 -0.027026 0.064723 0.0046012 0.11674 0.138 -0.12943 0.025979 0.029533 0.17491 0.23706 0.25326 0.041384 0.15464 0.090863 0.061941 0.0086594 0.022902 -0.054686 -0.034685 -0.062634 -0.24997 -0.10123 0.22148 0.17367 0.14411 -0.064555 0.14816 0.10873 0.030333 -0.21485 -0.20587 0.062139 0.071726 -0.40377 -0.1869 -0.14742 0.098214 0.031331 -0.080325 0.027103 0.17742 -0.19595 0.28294 0.0084319 -0.21348 0.19188 -0.11809 0.13291 -0.046479 0.13102 
he: -0.066227 -0.016463 -0.086294 -0.011721 0.20113 -0.051923 -0.040854 0.02846 -0.0693 0.010373 -0.0099894 0.18881 0.0034796 -0.15875 -0.017904 -0.056769 0.21428 0.32601 -0.096306 -0.04276 0.12705 0.19238 0.10188 0.036275 -0.063461 0.062755 0.25072 0.15277 -0.070577 -0.13184 -0.047156 -0.019135 0.095185 0.00031196 -0.031257 0.044164 0.087119 -0.27288 -0.027321 -0.25601 -0.13157 -0.15916 -0.12574 -0.18042 0.11095 -0.12833 0.018474 0.18154 0.1827 -0.046318 -0.051429 0.102 0.016857 0.12494 0.16515 -0.12935 0.021856 0.063615 0.16176 0.1713 0.27611 0.035987 0.14878 0.10932 0.072065 0.0069023 0.046015 -0.037756 -0.042068 -0.0049629 -0.24209 -0.10811 0.20804 0.15321 0.13009 -0.068123 0.14565 0.1361 0.050709 -0.18867 -0.20101 0.058727 0.074554 -0.38779 -0.20472 -0.18929 0.10875 0.024897 -0.064192 0.047219 0.16448 -0.16069 0.2801 0.0054816 -0.22661 0.17968 -0.10578 0.11544 -0.061718 0.1307 
to -0.084651 -0.033952 -0.064516 -0.020487 0.22199 -0.059117 -0.050675 0.040152 -0.058575 0.025436 -0.015732 0.172 0.012732 -0.15826 -0.022046 -0.092781 0.22479 0.31243 -0.068528 -0.036891 0.13308 0.19227 0.070211 0.059175 -0.10163 0.072072 0.27812 0.13097 -0.076931 -0.13741 -0.050042 0.0047136 0.091184 0.010985 -0.022654 0.028276 0.093999 -0.27525 -0.043563 -0.26088 -0.14427 -0.14942 -0.10181 -0.16903 0.12897 -0.1478 0.0058635 0.18687 0.16641 -0.048792 -0.045458 0.094058 -0.0017208 0.1356 0.1448 -0.13151 0.017147 0.037349 0.17252 0.22332 0.27712 0.033354 0.14253 0.10295 0.057406 -0.0041886 0.027781 -0.066672 -0.026064 -0.050771 -0.251 -0.13154 0.21176 0.15485 0.1434 -0.064289 0.15186 0.12241 0.046379 -0.20407 -0.19913 0.043757 0.063234 -0.43098 -0.22212 -0.18012 0.10257 0.033996 -0.069488 0.038626 0.16806 -0.19982 0.27495 0.0091231 -0.23261 0.18453 -0.11515 0.10892 -0.057045 0.13277 
ngu -0.10674 -0.061609 -0.059559 -0.0017508 0.18776 -0.057349 -0.054945 0.048431 -0.06882 0.013114 0.010893 0.12008 -0.0066485 -0.089708 -0.041578 -0.099815 0.20071 0.25934 -0.07459 0.00038738 0.11681 0.16306 0.071213 0.035609 -0.11727 0.046002 0.24619 0.15404 -0.077689 -0.10948 -0.068773 -0.015932 0.089949 0.055167 -0.024002 0.023003 0.1093 -0.24087 -0.035459 -0.27425 -0.14081 -0.10434 -0.047784 -0.16872 0.17025 -0.15903 -0.0088353 0.20985 0.16823 -0.062571 -0.0068582 0.02231 -0.0036352 0.10335 0.089489 -0.11351 0.040576 -0.0052077 0.20561 0.35887 0.29808 0.053624 0.1951 0.11336 0.050122 0.02804 0.024107 -0.066078 -0.02154 -0.092042 -0.23521 -0.12049 0.24406 0.16652 0.12518 -0.067849 0.14449 0.08696 0.042889 -0.22338 -0.20835 0.03182 0.091569 -0.42386 -0.19555 -0.16185 0.10255 0.0042572 -0.10671 0.034825 0.16987 -0.2502 0.30721 0.046075 -0.211 0.21787 -0.13162 0.14874 -0.078379 0.090336 
tai -0.08156 -0.047572 -0.045218 -0.015137 0.20115 -0.065609 -0.051812 0.027898 -0.072351 0.027464 -0.024184 0.15348 0.0030247 -0.13844 -0.026598 -0.10126 0.21631 0.28354 -0.088049 -0.011854 0.12387 0.17596 0.053224 0.065852 -0.092975 0.071719 0.25669 0.12751 -0.071298 -0.12174 -0.046171 0.0046512 0.09781 0.010763 -0.030315 0.026228 0.091135 -0.26615 -0.041139 -0.2554 -0.14593 -0.13454 -0.075947 -0.16122 0.13638 -0.14981 0.0095504 0.19443 0.16819 -0.037961 -0.026076 0.06763 0.0001411 0.11051 0.13688 -0.10905 0.015273 0.034809 0.1678 0.24576 0.25865 0.035067 0.14433 0.095317 0.051755 0.013712 0.028854 -0.053932 -0.021327 -0.068489 -0.23311 -0.11255 0.20398 0.16818 0.13182 -0.078272 0.14477 0.10468 0.054513 -0.20231 -0.193 0.045745 0.065921 -0.40717 -0.22149 -0.16542 0.09708 0.046665 -0.07628 0.043718 0.1713 -0.20521 0.26948 0.01898 -0.21627 0.17719 -0.11513 0.13155 -0.065483 0.12851 
dan -0.096137 -0.016828 -0.053216 -0.021144 0.2016 -0.077479 -0.070851 0.022285 -0.079756 0.019391 -0.016071 0.18933 0.0099073 -0.1475 0.0013918 -0.085253 0.21889 0.29898 -0.060916 -0.026081 0.13498 0.20151 0.05509 0.073254 -0.10253 0.087139 0.28803 0.12821 -0.08089 -0.12139 -0.042086 -0.0003919 0.11921 0.014897 -0.03511 0.019538 0.089539 -0.27945 -0.041943 -0.24943 -0.12968 -0.17505 -0.11343 -0.16763 0.12926 -0.15102 0.0072679 0.18117 0.17242 -0.048078 -0.047734 0.10528 0.01275 0.14513 0.17522 -0.13714 0.0086943 0.025537 0.18726 0.20758 0.30663 0.025155 0.14453 0.094504 0.08123 -0.0033973 0.024596 -0.073773 -0.038406 -0.039594 -0.24891 -0.10319 0.20238 0.16378 0.15798 -0.060737 0.15611 0.13825 0.046576 -0.1898 -0.19499 0.047337 0.072422 -0.40756 -0.21752 -0.19483 0.11441 0.061941 -0.075517 0.049806 0.19058 -0.1929 0.26088 -0.015826 -0.24734 0.21593 -0.09895 0.11959 -0.027323 0.15213 
cao -0.068847 -0.019034 -0.083456 -0.0072314 0.19385 -0.049801 -0.042915 0.034175 -0.084107 -0.00028707 -0.026383 0.20088 -0.00034456 -0.15359 -0.012035 -0.050489 0.21652 0.31164 -0.085732 -0.045756 0.13681 0.21441 0.08809 0.060422 -0.068967 0.082568 0.2555 0.14203 -0.072762 -0.13342 -0.043929 -0.015066 0.10312 0.015419 -0.034636 0.037969 0.090704 -0.26991 -0.031949 -0.25278 -0.11424 -0.1639 -0.11224 -0.17569 0.10423 -0.13275 0.0026499 0.16361 0.17827 -0.036978 -0.037282 0.11183 0.025553 0.13631 0.16263 -0.13354 0.020292 0.052514 0.16345 0.17588 0.29248 0.041398 0.13329 0.10255 0.061385 -0.0045478 0.032619 -0.048628 -0.039141 -0.0017522 -0.24094 -0.10589 0.20299 0.14171 0.14703 -0.048132 0.15757 0.1376 0.056757 -0.18567 -0.20588 0.05167 0.078616 -0.38409 -0.19745 -0.19229 0.11954 0.015997 -0.057766 0.059005 0.16962 -0.16911 0.28012 0.0075173 -0.23923 0.20137 -0.10225 0.10307 -0.055668 0.14587 
da -0.09896 -0.051901 -0.053187 -0.0015129 0.20315 -0.057804 -0.063661 0.036782 -0.068249 0.019562 -0.012851 0.16405 0.00014703 -0.13343 -0.020403 -0.095557 0.21762 0.28887 -0.081045 -0.027154 0.11402 0.17667 0.057566 0.051767 -0.10571 0.063026 0.26734 0.13361 -0.083114 -0.12982 -0.058441 -0.0050461 0.10624 0.029483 -0.034652 0.033029 0.091659 -0.27205 -0.031333 -0.26334 -0.14228 -0.13521 -0.080283 -0.16532 0.15543 -0.15068 0.0044672 0.18592 0.16958 -0.044728 -0.023017 0.067811 -1.6567e-05 0.12987 0.12969 -0.12543 0.021303 0.022872 0.18108 0.25737 0.2914 0.026736 0.15757 0.090412 0.048446 0.0079003 0.023731 -0.067867 -0.024514 -0.061839 -0.24097 -0.1222 0.22377 0.16452 0.13362 -0.068249 0.14793 0.11697 0.047974 -0.20486 -0.20056 0.04493 0.079655 -0.41999 -0.21263 -0.17791 0.11175 0.034255 -0.083162 0.048154 0.17853 -0.21975 0.28203 0.011936 -0.22222 0.20519 -0.12004 0.12741 -0.047213 0.12676 
dep, -0.10043 -0.043949 -0.066275 -0.0055036 0.19937 -0.053924 -0.056464 0.042215 -0.060266 0.0025239 -0.0021517 0.14978 -0.0041521 -0.11957 -0.033151 -0.091409 0.2135 0.28906 -0.076134 -0.025846 0.11023 0.18597 0.072777 0.043493 -0.10864 0.055673 0.25934 0.13738 -0.075795 -0.11253 -0.06027 -0.015027 0.093978 0.043274 -0.027797 0.026881 0.099745 -0.2584 -0.033069 -0.26449 -0.13386 -0.12508 -0.081341 -0.16947 0.15806 -0.15478 -0.00083168 0.19513 0.1644 -0.05577 -0.020999 0.053545 0.0033207 0.11719 0.1083 -0.1226 0.032147 0.013761 0.19045 0.28836 0.30056 0.04599 0.17495 0.11294 0.04759 0.0086509 0.028504 -0.06641 -0.024145 -0.062915 -0.2321 -0.11426 0.22414 0.16127 0.13261 -0.066465 0.14976 0.10696 0.047171 -0.20995 -0.20217 0.042001 0.081768 -0.41907 -0.20576 -0.17759 0.10872 0.018568 -0.088692 0.045528 0.17323 -0.23051 0.29825 0.027 -0.22012 0.20616 -0.12239 0.13403 -0.069402 0.10812 
ha -0.093914 -0.047987 -0.061377 -0.017681 0.22178 -0.044599 -0.049077 0.043054 -0.064676 0.031159 -0.028244 0.1582 0.0013206 -0.15721 -0.046015 -0.08986 0.23039 0.29522 -0.09771 -0.032412 0.13093 0.16844 0.065841 0.042977 -0.084563 0.06384 0.27444 0.13708 -0.070559 -0.12779 -0.052675 0.011855 0.09766 0.0014474 -0.016543 0.03936 0.091685 -0.2841 -0.029741 -0.27066 -0.16436 -0.12475 -0.10092 -0.16608 0.15187 -0.15679 0.022838 0.20858 0.17189 -0.028493 -0.045654 0.068174 -0.012315 0.10394 0.13739 -0.10541 0.011711 0.047969 0.16416 0.25196 0.24802 0.020566 0.14863 0.10406 0.046362 0.002515 0.027683 -0.0477 -0.017178 -0.072097 -0.26492 -0.13551 0.21911 0.17586 0.12399 -0.09072 0.15483 0.10789 0.053177 -0.21995 -0.19578 0.045951 0.086529 -0.42605 -0.2308 -0.15983 0.098466 0.054644 -0.078224 0.043619 0.16039 -0.22046 0.28592 0.018421 -0.19024 0.17525 -0.12436 0.14051 -0.081003 0.12164 
truong -0.07986 0.0038168 -0.061686 -0.027455 0.20321 -0.081278 -0.076902 0.023273 -0.068268 0.043248 -0.0085889 0.20718 0.018215 -0.17871 0.018309 -0.080233 0.20069 0.31984 -0.084615 -0.044221 0.12408 0.1993 0.074832 0.057329 -0.08199 0.076355 0.29382 0.13446 -0.078306 -0.12017 -0.021883 0.0038845 0.11794 -0.0067099 -0.054683 0.019938 0.088324 -0.27364 -0.04426 -0.25402 -0.14258 -0.20106 -0.1474 -0.14997 0.12141 -0.15096 0.035345 0.18266 0.18379 -0.059701 -0.052641 0.13177 0.017233 0.14197 0.18561 -0.1721 0.012842 0.047255 0.17133 0.14757 0.27575 0.033798 0.14171 0.076091 0.097227 -0.0064265 0.033224 -0.070384 -0.068364 -0.0066069 -0.26199 -0.10228 0.20148 0.17341 0.17506 -0.055716 0.14799 0.15244 0.023736 -0.19851 -0.20265 0.068942 0.058329 -0.4007 -0.19245 -0.16942 0.098174 0.049913 -0.059113 0.011688 0.1974 -0.16167 0.25271 -0.034302 -0.22955 0.19407 -0.10426 0.11359 -0.0067083 0.16429 
chi -0.066793 -0.003674 -0.092655 -0.022557 0.22156 -0.042299 -0.045043 0.035398 -0.068098 0.015753 -0.027807 0.19435 0.0073191 -0.1667 -0.021191 -0.049064 0.21629 0.32338 -0.094315 -0.056184 0.13265 0.20372 0.11115 0.038054 -0.050113 0.060909 0.26329 0.14053 -0.070498 -0.12627 -0.045685 -0.00026065 0.096359 -0.013187 -0.034641 0.053663 0.088215 -0.27201 -0.041065 -0.26028 -0.15569 -0.17029 -0.13636 -0.17293 0.10785 -0.12924 0.031924 0.18724 0.18262 -0.038799 -0.06426 0.11797 0.0109 0.12671 0.18149 -0.12405 0.020251 0.078235 0.15989 0.15473 0.27143 0.027925 0.13785 0.10171 0.078667 -0.0020289 0.042126 -0.028978 -0.046808 0.0039277 -0.25512 -0.12131 0.19908 0.15698 0.14044 -0.076692 0.15793 0.14881 0.050317 -0.19278 -0.19064 0.065663 0.072553 -0.39705 -0.2219 -0.18197 0.10636 0.04082 -0.059615 0.043807 0.16776 -0.16292 0.27602 -0.0020353 -0.23008 0.16793 -0.11689 0.12338 -0.065595 0.14162 
dat -0.094332 -0.043279 -0.058904 -0.014039 0.20295 -0.052614 -0.05197 0.032361 -0.068891 0.019699 -0.013341 0.16029 0.0043318 -0.13576 -0.0268 -0.085625 0.21105 0.27602 -0.080761 -0.023083 0.11548 0.17503 0.054478 0.050537 -0.087465 0.065674 0.259 0.12377 -0.070141 -0.12011 -0.052509 -0.0060095 0.093181 0.011829 -0.024864 0.032999 0.092319 -0.2654 -0.030341 -0.25139 -0.13189 -0.133 -0.087597 -0.165 0.14212 -0.1505 -0.0016282 0.18496 0.16014 -0.039226 -0.036809 0.067578 -0.0064893 0.11346 0.13289 -0.11746 0.01329 0.033745 0.16878 0.2264 0.2678 0.031764 0.14308 0.091843 0.049415 0.0010368 0.027195 -0.051217 -0.021619 -0.053001 -0.23345 -0.11891 0.20259 0.15291 0.12418 -0.070243 0.14603 0.11941 0.048547 -0.19841 -0.18783 0.048069 0.083215 -0.39973 -0.20851 -0.1714 0.10554 0.042816 -0.076815 0.048938 0.16464 -0.19899 0.26556 0.0073886 -0.20868 0.1794 -0.11526 0.12332 -0.055345 0.12441 
- -0.079601 -0.034927 -0.063929 -0.016757 0.20484 -0.063278 -0.037672 0.029178 -0.071641 0.014913 -0.017181 0.17038 -0.0085004 -0.14899 -0.032873 -0.071102 0.20265 0.31324 -0.077415 -0.029566 0.13112 0.18656 0.085376 0.050275 -0.083312 0.067613 0.271 0.14043 -0.057248 -0.13448 -0.052145 -0.000581 0.091829 0.012561 -0.022075 0.034775 0.10682 -0.27368 -0.0339 -0.27556 -0.14991 -0.14422 -0.10489 -0.17817 0.12776 -0.14522 0.004368 0.19641 0.19002 -0.053967 -0.044802 0.07893 0.0013763 0.11368 0.14742 -0.12859 0.022007 0.055291 0.17005 0.21821 0.28322 0.029082 0.15284 0.10042 0.068859 0.021169 0.037445 -0.042014 -0.032302 -0.03126 -0.23007 -0.11545 0.20934 0.16006 0.11717 -0.075085 0.15346 0.12504 0.054538 -0.20774 -0.20043 0.043216 0.069336 -0.41146 -0.20894 -0.18153 0.10388 0.042705 -0.06832 0.04514 0.18179 -0.20731 0.28492 0.01167 -0.21438 0.18201 -0.1123 0.12825 -0.060547 0.12404 
thuan -0.072283 -0.0069665 -0.079397 -0.012894 0.20497 -0.056677 -0.052397 0.027066 -0.081265 0.013147 -0.020491 0.19533 0.0062013 -0.17061 -0.011976 -0.058302 0.22629 0.32158 -0.090958 -0.046887 0.13757 0.20547 0.095559 0.051846 -0.060798 0.0714 0.26377 0.13888 -0.074131 -0.12722 -0.038861 -0.0022879 0.10747 -0.0080568 -0.035173 0.047736 0.083402 -0.27906 -0.027128 -0.25081 -0.13705 -0.17434 -0.13023 -0.1731 0.10201 -0.13208 0.025103 0.1836 0.17886 -0.032097 -0.052936 0.11933 0.016516 0.1265 0.18685 -0.11996 0.019302 0.059741 0.15903 0.15993 0.27738 0.033162 0.13851 0.099365 0.083685 -0.00050737 0.034601 -0.04474 -0.04448 -0.0019756 -0.25563 -0.10839 0.20207 0.15911 0.14107 -0.067777 0.15176 0.14347 0.047151 -0.18614 -0.19806 0.062987 0.068393 -0.38983 -0.21016 -0.18085 0.10276 0.046185 -0.062878 0.047191 0.17381 -0.16585 0.26765 -0.0066349 -0.22763 0.19463 -0.10366 0.118 -0.052442 0.14457 
rong -0.099969 -0.036099 -0.061214 -0.0084417 0.20914 -0.063428 -0.066455 0.035101 -0.056485 0.030261 -0.00241 0.16419 0.012693 -0.16212 -0.025243 -0.11107 0.21314 0.30443 -0.096636 -0.028279 0.11066 0.18133 0.073665 0.042103 -0.097364 0.053814 0.26722 0.1363 -0.082646 -0.12352 -0.042125 0.0037166 0.1037 0.012511 -0.036105 0.018012 0.093932 -0.26561 -0.027853 -0.26663 -0.154 -0.14613 -0.102 -0.15259 0.14908 -0.14991 0.02373 0.19761 0.17096 -0.054005 -0.030832 0.060426 -0.00043183 0.12359 0.13116 -0.13205 0.0281 0.036005 0.17291 0.23515 0.25051 0.039241 0.15261 0.087819 0.06285 0.0040026 0.027612 -0.058108 -0.034977 -0.060353 -0.25698 -0.113 0.21854 0.17639 0.14147 -0.069509 0.1515 0.1164 0.032134 -0.22157 -0.20369 0.060188 0.076184 -0.41295 -0.19127 -0.14784 0.097903 0.032576 -0.075585 0.021421 0.17927 -0.20645 0.28591 0.011136 -0.20989 0.18941 -0.12365 0.12915 -0.052521 0.12272 
an -0.084348 -0.018403 -0.061956 -0.022199 0.20512 -0.073899 -0.071593 0.026393 -0.085542 0.026222 -0.018503 0.18234 0.0084715 -0.15623 -0.0076359 -0.080861 0.2214 0.3097 -0.073011 -0.029179 0.13919 0.19986 0.066596 0.064986 -0.083425 0.082089 0.2839 0.13506 -0.074446 -0.12491 -0.04077 0.0070664 0.12209 0.0086753 -0.035855 0.032216 0.090139 -0.28312 -0.041382 -0.2454 -0.14213 -0.18376 -0.12067 -0.16674 0.11395 -0.14607 0.023675 0.19246 0.17962 -0.04786 -0.046056 0.11317 0.021443 0.14159 0.18434 -0.12486 0.017813 0.036065 0.17944 0.19761 0.30049 0.026683 0.13752 0.10116 0.084476 0.0030565 0.025969 -0.057927 -0.049345 -0.028291 -0.25478 -0.1088 0.20269 0.17006 0.16097 -0.064855 0.15947 0.13191 0.052953 -0.1974 -0.20244 0.055809 0.073978 -0.40473 -0.21771 -0.19683 0.10511 0.061401 -0.069984 0.038046 0.1869 -0.1797 0.26129 -0.018486 -0.24107 0.20563 -0.097829 0.12324 -0.030823 0.15202 
dinh -0.079746 -0.019 -0.057626 -0.01759 0.20719 -0.059337 -0.058455 0.028916 -0.076723 0.036452 -0.03207 0.16627 0.0018336 -0.15369 -0.0074075 -0.07261 0.21806 0.30746 -0.080796 -0.023052 0.12352 0.18623 0.067318 0.059555 -0.070096 0.071882 0.26678 0.13289 -0.066463 -0.12741 -0.037692 0.0079539 0.11073 -0.00064561 -0.030601 0.037898 0.095189 -0.2745 -0.035946 -0.25846 -0.15047 -0.15751 -0.11695 -0.16092 0.12742 -0.13585 0.019018 0.18976 0.17288 -0.043186 -0.045836 0.087888 0.015291 0.12216 0.15801 -0.11645 0.017095 0.047533 0.15942 0.20926 0.27177 0.029347 0.14238 0.095825 0.071786 0.0064863 0.038413 -0.047887 -0.048721 -0.050864 -0.24373 -0.10522 0.21566 0.16898 0.14642 -0.068742 0.15346 0.12754 0.042965 -0.20002 -0.1954 0.055115 0.078616 -0.40261 -0.21524 -0.16226 0.10129 0.049942 -0.066478 0.038434 0.17699 -0.19196 0.26413 0.0075159 -0.21484 0.18531 -0.11016 0.12949 -0.045621 0.12491 
thiet -0.098169 -0.052046 -0.051299 0.0029134 0.18466 -0.069027 -0.056606 0.030584 -0.081475 0.0020998 -0.01154 0.15711 -0.012697 -0.12156 -0.032505 -0.097726 0.22412 0.29599 -0.081144 -0.012692 0.11539 0.19074 0.065105 0.053009 -0.11308 0.062829 0.26096 0.14644 -0.074434 -0.13014 -0.05967 -0.01403 0.097998 0.045464 -0.03912 0.024568 0.099257 -0.26084 -0.031896 -0.2645 -0.13401 -0.1243 -0.070384 -0.17778 0.15187 -0.14717 -0.015035 0.18985 0.1757 -0.054787 -0.011427 0.052169 0.0050388 0.12233 0.11981 -0.11433 0.024321 0.0095026 0.17907 0.28043 0.2939 0.046 0.162 0.10072 0.042586 0.005148 0.024862 -0.063558 -0.017329 -0.057605 -0.23059 -0.11544 0.22592 0.16172 0.12864 -0.070653 0.15673 0.10795 0.049063 -0.20518 -0.21093 0.04547 0.080082 -0.42105 -0.20089 -0.17923 0.10967 0.019471 -0.085302 0.047141 0.17417 -0.22557 0.30203 0.03029 -0.23342 0.22243 -0.12128 0.12865 -0.068692 0.1164 
tay -0.093463 -0.04594 -0.052738 -0.0090699 0.20307 -0.055997 -0.050578 0.034399 -0.065931 0.018663 -0.012807 0.15617 -0.0034019 -0.1402 -0.025545 -0.096914 0.21694 0.28538 -0.083807 -0.024666 0.11887 0.19002 0.061534 0.056364 -0.10465 0.069618 0.26496 0.13142 -0.078027 -0.13184 -0.052802 -0.0018497 0.10663 0.023058 -0.029381 0.024179 0.097997 -0.27459 -0.032169 -0.26367 -0.1434 -0.1393 -0.087264 -0.16509 0.15158 -0.1534 0.0093846 0.2027 0.16912 -0.043429 -0.026895 0.057204 0.0042012 0.12023 0.13037 -0.11582 0.018923 0.031165 0.17755 0.27016 0.27747 0.036485 0.1505 0.1049 0.042977 0.0097473 0.031347 -0.054484 -0.020157 -0.064106 -0.23882 -0.11435 0.21698 0.17162 0.12866 -0.075029 0.15184 0.11471 0.055669 -0.21627 -0.20147 0.04488 0.078029 -0.41718 -0.21811 -0.1714 0.10612 0.036262 -0.089581 0.045341 0.16497 -0.22107 0.28824 0.019233 -0.21506 0.19178 -0.11748 0.12675 -0.066934 0.12705 
that -0.095893 -0.0521 -0.049637 0.0038577 0.18653 -0.050971 -0.048695 0.034007 -0.075077 -0.0092269 -0.015376 0.15676 -0.01915 -0.10978 -0.035278 -0.092599 0.22624 0.29567 -0.072831 -0.015244 0.10735 0.19339 0.064688 0.059203 -0.11719 0.065975 0.2534 0.13924 -0.074598 -0.13033 -0.060565 -0.022263 0.1012 0.050818 -0.029035 0.031078 0.10489 -0.26513 -0.024658 -0.26081 -0.12486 -0.11634 -0.071259 -0.1813 0.15153 -0.14831 -0.019149 0.18326 0.1733 -0.052411 -0.016305 0.049083 0.011052 0.13142 0.11132 -0.11708 0.032915 0.0042499 0.1773 0.29016 0.29903 0.048259 0.16074 0.10986 0.034004 -0.0014711 0.024918 -0.069859 -0.0075605 -0.059164 -0.22957 -0.11539 0.22042 0.15462 0.12405 -0.070312 0.15555 0.11168 0.059696 -0.20115 -0.201 0.040253 0.086154 -0.42609 -0.20252 -0.17544 0.10976 0.0166 -0.082734 0.059461 0.17792 -0.23483 0.29702 0.030478 -0.22515 0.22295 -0.11385 0.12181 -0.068868 0.10695 
de -0.088601 -0.041523 -0.061089 -0.0046467 0.19295 -0.054326 -0.053455 0.029579 -0.074565 0.0027144 -0.004208 0.15453 -0.0085906 -0.13756 -0.020188 -0.084461 0.21917 0.30579 -0.069072 -0.022318 0.1224 0.19412 0.074721 0.048837 -0.10543 0.062339 0.26472 0.1393 -0.072978 -0.12455 -0.05474 -0.0057027 0.10601 0.021335 -0.036068 0.02414 0.099795 -0.27405 -0.039836 -0.26252 -0.13661 -0.13618 -0.099347 -0.17388 0.14343 -0.14701 -0.00016669 0.18433 0.16949 -0.056466 -0.029614 0.066667 0.012979 0.12708 0.13372 -0.12635 0.024516 0.02451 0.17844 0.24043 0.28425 0.029507 0.16014 0.099242 0.0507 0.011717 0.033166 -0.058661 -0.021067 -0.052619 -0.24082 -0.11841 0.22419 0.1537 0.12925 -0.064724 0.14715 0.11411 0.047891 -0.20144 -0.20867 0.044803 0.077091 -0.42254 -0.21448 -0.18751 0.10662 0.018162 -0.075045 0.053042 0.1704 -0.21343 0.28757 0.021101 -0.22077 0.20689 -0.11217 0.11773 -0.064593 0.12013 
cu -0.078492 -0.043371 -0.048704 -0.0058341 0.19661 -0.054337 -0.043662 0.032813 -0.064814 0.03337 -0.027153 0.15166 0.0087487 -0.13903 -0.033252 -0.086437 0.2201 0.28734 -0.085137 -0.030771 0.11605 0.17966 0.059093 0.058689 -0.090734 0.072228 0.24806 0.1306 -0.073693 -0.12677 -0.061951 -0.0032575 0.096818 0.018074 -0.020509 0.032368 0.095299 -0.25968 -0.040384 -0.24494 -0.13948 -0.13772 -0.079045 -0.17176 0.13301 -0.14539 0.0068572 0.19415 0.17547 -0.042623 -0.030634 0.072742 0.0016338 0.11906 0.12531 -0.10797 0.0242 0.031257 0.1734 0.24515 0.26814 0.029845 0.13796 0.10409 0.044308 0.0078779 0.025337 -0.046585 -0.019841 -0.062344 -0.24851 -0.1195 0.21477 0.1555 0.1322 -0.072943 0.15048 0.10434 0.059816 -0.20669 -0.19436 0.042558 0.083408 -0.40812 -0.21617 -0.16628 0.097279 0.026609 -0.081867 0.04022 0.15087 -0.20593 0.28074 0.018629 -0.21687 0.17874 -0.10939 0.12413 -0.067825 0.11782 
dai -0.082914 -0.03737 -0.045761 -0.0063817 0.19647 -0.072848 -0.059437 0.027504 -0.079664 0.0099603 -0.016295 0.16983 -0.0050097 -0.13991 -0.014304 -0.091481 0.22704 0.30289 -0.078309 -0.015327 0.127 0.18955 0.06003 0.067694 -0.10439 0.078342 0.27043 0.13579 -0.079568 -0.13021 -0.045559 -0.0065489 0.10666 0.011505 -0.046347 0.029215 0.090093 -0.27279 -0.046723 -0.26195 -0.13076 -0.14822 -0.086131 -0.16962 0.1379 -0.15659 -0.0051833 0.19387 0.17293 -0.04723 -0.025189 0.091268 0.0076011 0.12193 0.14565 -0.13242 0.012064 0.021366 0.17529 0.23709 0.28159 0.029434 0.14992 0.082959 0.06011 0.0031088 0.023944 -0.070254 -0.022997 -0.052983 -0.24188 -0.11776 0.21862 0.16906 0.14207 -0.072215 0.14746 0.11619 0.04916 -0.18838 -0.205 0.052045 0.066315 -0.4189 -0.21206 -0.1819 0.11167 0.034268 -0.075813 0.049537 0.19036 -0.19428 0.27521 0.0068399 -0.23933 0.2133 -0.11319 0.12474 -0.055812 0.14472 
ke -0.10347 -0.049456 -0.066262 -0.010993 0.19759 -0.058522 -0.056832 0.043386 -0.074591 0.013588 -0.011851 0.15801 -0.013242 -0.12811 -0.038952 -0.099997 0.22536 0.30187 -0.082282 -0.02526 0.11964 0.19135 0.07441 0.048164 -0.10712 0.06335 0.26007 0.14248 -0.081568 -0.12528 -0.050358 -0.014302 0.09317 0.033836 -0.028753 0.033987 0.10636 -0.26541 -0.035656 -0.27037 -0.13519 -0.1169 -0.08017 -0.18274 0.1565 -0.15818 -0.0071019 0.19859 0.17041 -0.055753 -0.035368 0.06241 0.0019635 0.1213 0.12004 -0.12473 0.022834 0.020888 0.17934 0.26825 0.28218 0.048991 0.16496 0.10821 0.052612 0.0016401 0.025894 -0.066632 -0.023981 -0.056685 -0.24574 -0.12022 0.22725 0.16015 0.12851 -0.063436 0.15563 0.11938 0.054614 -0.21001 -0.20335 0.041958 0.07701 -0.42289 -0.21089 -0.18028 0.10447 0.01438 -0.080935 0.042257 0.17139 -0.22553 0.30262 0.028637 -0.22933 0.20706 -0.1165 0.12062 -0.083502 0.11927 
oto -0.088289 -0.026113 -0.071718 -0.031519 0.2246 -0.055349 -0.055281 0.041281 -0.050851 0.021275 -0.012137 0.17683 0.013507 -0.1631 -0.033327 -0.094424 0.23067 0.30863 -0.074341 -0.04766 0.13044 0.19646 0.072929 0.050481 -0.10307 0.066725 0.283 0.12543 -0.08164 -0.13407 -0.048804 0.0012509 0.083995 0.011969 -0.025051 0.03433 0.09055 -0.27426 -0.042498 -0.25998 -0.1377 -0.14592 -0.10401 -0.16882 0.13236 -0.15702 0.0094628 0.18794 0.15691 -0.039491 -0.057271 0.096227 -0.0093358 0.1359 0.14302 -0.13495 0.018789 0.044674 0.17785 0.21641 0.27532 0.036529 0.15054 0.099026 0.051366 -0.013175 0.036672 -0.067112 -0.032393 -0.040724 -0.25736 -0.13151 0.20062 0.14699 0.15098 -0.069715 0.15372 0.12839 0.05332 -0.2033 -0.18931 0.0406 0.071088 -0.4287 -0.22747 -0.18597 0.096642 0.031987 -0.071632 0.039144 0.16512 -0.20216 0.27719 0.0030486 -0.22298 0.1825 -0.12142 0.11576 -0.061295 0.12779 
thang -0.087706 -0.055501 -0.06259 0.016599 0.19615 -0.049412 -0.040063 0.033484 -0.083395 -0.0092941 -0.024239 0.16275 -0.013923 -0.14625 -0.040269 -0.07926 0.23652 0.30786 -0.10353 -0.029695 0.11953 0.20191 0.074701 0.052351 -0.084661 0.059196 0.24442 0.14577 -0.072504 -0.13703 -0.06078 -0.023455 0.10525 0.031389 -0.033338 0.044922 0.0976 -0.27354 -0.006535 -0.26769 -0.12557 -0.12764 -0.087515 -0.17129 0.13973 -0.13584 0.0019532 0.17716 0.17734 -0.039367 -0.014035 0.056703 0.01753 0.12762 0.12587 -0.10424 0.028601 0.025895 0.16596 0.26248 0.28142 0.044712 0.15704 0.11193 0.039027 0.0065419 0.025638 -0.051877 -0.0093393 -0.045768 -0.23902 -0.11435 0.22423 0.1592 0.1101 -0.073921 0.16245 0.10787 0.059141 -0.19919 -0.2055 0.057446 0.077726 -0.41 -0.19633 -0.16469 0.10956 0.015375 -0.067097 0.05953 0.17709 -0.21663 0.31476 0.037845 -0.21928 0.21476 -0.11885 0.13002 -0.079285 0.11689 
vi -0.08825 -0.027347 -0.059563 -0.014423 0.20344 -0.068549 -0.057545 0.035784 -0.072075 0.017222 -0.015689 0.18033 0.0030539 -0.15084 -0.0081105 -0.086093 0.2295 0.31808 -0.079388 -0.033572 0.12545 0.18345 0.06488 0.065437 -0.10128 0.073965 0.27725 0.12893 -0.076052 -0.12434 -0.038103 -0.00046635 0.10304 0.011971 -0.032161 0.020945 0.093838 -0.27025 -0.042457 -0.26006 -0.13134 -0.15415 -0.10408 -0.16811 0.1394 -0.1499 0.0063274 0.18055 0.17027 -0.047194 -0.042168 0.096251 -0.0018714 0.1295 0.15502 -0.13226 0.010531 0.040527 0.18151 0.21974 0.29649 0.031186 0.15437 0.099497 0.06857 0.0035243 0.03413 -0.063361 -0.03327 -0.04641 -0.24082 -0.11625 0.21385 0.16484 0.1418 -0.065182 0.15196 0.1272 0.049212 -0.20109 -0.20841 0.05079 0.064784 -0.41415 -0.21943 -0.19473 0.1031 0.042073 -0.072633 0.042505 0.17821 -0.19473 0.27537 0.0062776 -0.2395 0.19407 -0.10656 0.11666 -0.05163 0.13691 
dung -0.089305 -0.047071 -0.070319 -0.011489 0.21428 -0.047635 -0.045592 0.034661 -0.06897 0.022949 -0.023612 0.16821 0.0083604 -0.15654 -0.037685 -0.089061 0.23127 0.29484 -0.11017 -0.03126 0.12434 0.19053 0.067407 0.044449 -0.06823 0.056558 0.26452 0.12776 -0.077695 -0.12525 -0.05268 5.7694e-05 0.090952 0.01081 -0.02871 0.041763 0.088709 -0.27046 -0.023625 -0.26876 -0.14499 -0.14426 -0.0996 -0.162 0.14198 -0.15191 0.017292 0.1956 0.17046 -0.02622 -0.028521 0.067541 -0.0017192 0.11123 0.12816 -0.111 0.024079 0.043941 0.17036 0.23393 0.26215 0.03429 0.1437 0.10173 0.046024 0.0019083 0.02552 -0.04364 -0.029026 -0.057662 -0.25106 -0.12247 0.21729 0.16625 0.12709 -0.079949 0.15371 0.10581 0.046908 -0.21377 -0.19791 0.05434 0.08695 -0.39898 -0.21059 -0.16032 0.10572 0.033394 -0.07149 0.041049 0.16841 -0.20523 0.2903 0.016885 -0.2058 0.17786 -0.12875 0.13961 -0.06511 0.12528 
vao -0.084359 -0.021094 -0.078314 -0.01313 0.20842 -0.055091 -0.050436 0.034216 -0.074087 0.012529 -0.0096958 0.18006 0.0021921 -0.16461 -0.020603 -0.083068 0.22449 0.32141 -0.082847 -0.037512 0.12874 0.19753 0.078447 0.050113 -0.089596 0.070089 0.27092 0.13648 -0.075959 -0.13149 -0.044685 -0.0029348 0.10085 0.0069355 -0.032626 0.02693 0.093935 -0.27076 -0.047296 -0.26138 -0.13984 -0.15154 -0.11547 -0.16824 0.12826 -0.14522 0.012621 0.18584 0.17337 -0.047062 -0.04506 0.09167 0.0081039 0.12558 0.14716 -0.12979 0.018903 0.051674 0.17091 0.20771 0.28068 0.035993 0.14891 0.107 0.067015 0.0070705 0.042966 -0.051662 -0.030773 -0.033686 -0.24591 -0.1165 0.20929 0.15113 0.14054 -0.056865 0.15074 0.12586 0.050795 -0.20189 -0.20215 0.056435 0.073268 -0.40917 -0.21423 -0.17716 0.11312 0.029726 -0.065126 0.051716 0.17115 -0.18592 0.27916 0.014743 -0.22474 0.19276 -0.1103 0.11504 -0.061859 0.1355 
hien -0.090703 -0.033742 -0.081725 -0.0093142 0.20565 -0.051707 -0.056847 0.03639 -0.074042 -0.0039765 -0.014592 0.18178 0.0035452 -0.15144 -0.017642 -0.073871 0.22559 0.30332 -0.10354 -0.041706 0.124 0.20514 0.09203 0.037071 -0.081557 0.062006 0.26675 0.13564 -0.079483 -0.12977 -0.055141 -0.0056818 0.091393 0.016043 -0.039279 0.044353 0.083248 -0.26644 -0.026374 -0.26148 -0.1246 -0.14764 -0.10589 -0.16593 0.12408 -0.14489 0.016 0.17038 0.17051 -0.039407 -0.029795 0.093221 0.0056754 0.1303 0.14856 -0.12246 0.020747 0.048982 0.16224 0.20494 0.28247 0.044537 0.13818 0.10493 0.061076 -0.0133 0.026098 -0.050222 -0.03079 -0.02076 -0.241 -0.12238 0.2076 0.1606 0.12983 -0.067921 0.15913 0.13177 0.052754 -0.19989 -0.20848 0.052561 0.073767 -0.38959 -0.19699 -0.18226 0.11097 0.023806 -0.069384 0.048423 0.16112 -0.18136 0.27881 0.016918 -0.21524 0.19532 -0.11801 0.10629 -0.067073 0.13765 
phuong -0.084224 -0.03091 -0.059434 -0.014291 0.20585 -0.062171 -0.056865 0.026724 -0.063427 0.042368 -0.0089889 0.17615 0.010631 -0.1701 -0.020559 -0.089947 0.21134 0.3058 -0.10188 -0.030607 0.11696 0.18031 0.075906 0.042546 -0.078542 0.059759 0.26121 0.14164 -0.073936 -0.12144 -0.047042 0.0086149 0.10745 -0.012385 -0.041104 0.032108 0.092303 -0.26953 -0.024663 -0.25965 -0.15721 -0.1603 -0.11754 -0.15357 0.13477 -0.14449 0.03619 0.19712 0.18094 -0.048236 -0.036266 0.077821 0.0025913 0.1155 0.15405 -0.12796 0.019685 0.053171 0.15677 0.19672 0.24464 0.034782 0.14683 0.095911 0.070324 0.011205 0.033577 -0.04414 -0.037488 -0.044065 -0.25634 -0.10814 0.21188 0.17424 0.13131 -0.072201 0.1487 0.11388 0.038641 -0.21168 -0.20404 0.068625 0.07101 -0.3962 -0.19044 -0.14093 0.096818 0.038789 -0.064975 0.02403 0.17396 -0.18159 0.27582 0.0015993 -0.20747 0.17608 -0.11202 0.13155 -0.048752 0.1338 
ba -0.08024 -0.029556 -0.075094 -0.014036 0.21686 -0.044232 -0.045281 0.040768 -0.065664 0.02619 -0.021369 0.17386 0.010196 -0.16684 -0.032252 -0.075117 0.22856 0.2999 -0.10599 -0.047399 0.12658 0.1821 0.07605 0.045459 -0.063274 0.054523 0.24899 0.13551 -0.076194 -0.12663 -0.046689 0.010786 0.10196 -0.0082787 -0.026858 0.043334 0.085021 -0.26861 -0.031752 -0.26361 -0.15282 -0.14221 -0.11471 -0.16004 0.143 -0.14577 0.031452 0.20102 0.1738 -0.0298 -0.040319 0.076909 0.0034981 0.10202 0.14228 -0.10873 0.020849 0.067109 0.16227 0.19833 0.24642 0.023205 0.14955 0.094067 0.056983 0.001746 0.027966 -0.036945 -0.024084 -0.043118 -0.24511 -0.12117 0.21003 0.16401 0.12262 -0.073877 0.14957 0.11094 0.04997 -0.21429 -0.18906 0.063242 0.088208 -0.38643 -0.21812 -0.14364 0.10283 0.039471 -0.057917 0.041723 0.16832 -0.19263 0.27812 0.018375 -0.19482 0.16655 -0.11279 0.12646 -0.061 0.13757 
chung -0.068219 -0.034936 -0.068714 -0.014216 0.2058 -0.051177 -0.038787 0.027582 -0.076075 0.030898 -0.029769 0.16483 0.0084955 -0.15614 -0.027126 -0.068932 0.21526 0.28755 -0.099965 -0.034342 0.12472 0.18713 0.079658 0.049546 -0.056309 0.064911 0.24976 0.13447 -0.069592 -0.12303 -0.051256 -0.0016595 0.092909 0.0037866 -0.025736 0.047949 0.088392 -0.26341 -0.023207 -0.24779 -0.1386 -0.15144 -0.11171 -0.1599 0.11987 -0.13736 0.020506 0.19083 0.17144 -0.031231 -0.032344 0.084693 0.0057598 0.11228 0.15034 -0.10859 0.021406 0.059507 0.15978 0.19497 0.26404 0.029004 0.13342 0.10803 0.058479 0.0031211 0.028856 -0.03415 -0.03027 -0.029984 -0.24121 -0.11383 0.19862 0.15466 0.12766 -0.076067 0.15086 0.11489 0.051859 -0.19212 -0.19244 0.059008 0.077899 -0.38036 -0.20757 -0.16112 0.09835 0.034987 -0.063286 0.038526 0.16288 -0.17889 0.27785 0.003655 -0.21751 0.16327 -0.11455 0.13159 -0.067825 0.13252 
quang -0.069443 -0.037007 -0.10399 0.0048376 0.22144 -0.035686 -0.028329 0.031324 -0.075427 -0.00073581 -0.031976 0.19207 0.0030831 -0.17995 -0.032254 -0.04691 0.22608 0.31873 -0.13402 -0.054362 0.12953 0.20903 0.11152 0.033027 -0.03779 0.052025 0.23185 0.15088 -0.068958 -0.13448 -0.050373 -0.013477 0.1004 -0.0082267 -0.028178 0.064901 0.083164 -0.27053 -0.0059327 -0.26679 -0.13081 -0.14957 -0.12601 -0.16568 0.11248 -0.12765 0.043889 0.17539 0.18279 -0.017599 -0.035061 0.088002 0.014953 0.11389 0.15536 -0.10853 0.031901 0.084769 0.1459 0.17188 0.25502 0.042987 0.14382 0.12067 0.062581 0.011319 0.036822 -0.018815 -0.033797 -0.0048804 -0.24803 -0.10757 0.20987 0.15801 0.11465 -0.07532 0.15918 0.1281 0.057609 -0.18933 -0.20175 0.069849 0.088079 -0.36451 -0.19557 -0.15481 0.11324 0.015135 -0.048632 0.05835 0.16387 -0.1609 0.29758 0.024326 -0.20241 0.1764 -0.12521 0.1279 -0.080429 0.13636 
bac -0.088303 -0.026585 -0.074464 -0.015845 0.21598 -0.056029 -0.054005 0.038962 -0.071135 0.01786 -0.0070587 0.18179 0.0085659 -0.16842 -0.025312 -0.078279 0.22669 0.31218 -0.095529 -0.041457 0.12546 0.19263 0.079115 0.045031 -0.081734 0.060907 0.27409 0.13533 -0.075762 -0.13347 -0.044668 -0.0034676 0.096661 0.0039401 -0.032595 0.033917 0.092848 -0.27016 -0.03496 -0.27454 -0.14737 -0.14645 -0.11284 -0.16334 0.14418 -0.15602 0.028382 0.19952 0.17012 -0.039485 -0.039746 0.092352 0.0026109 0.11333 0.14515 -0.12789 0.014912 0.051551 0.17375 0.221 0.27746 0.028723 0.15942 0.095629 0.060825 -0.00074023 0.031616 -0.046282 -0.032737 -0.037217 -0.25119 -0.1175 0.22045 0.16741 0.13647 -0.070569 0.15564 0.12024 0.043187 -0.21549 -0.20048 0.060299 0.07668 -0.40662 -0.21779 -0.17556 0.099856 0.03059 -0.065134 0.043001 0.17449 -0.20221 0.28206 0.007786 -0.21026 0.18228 -0.11565 0.1247 -0.059731 0.13478 
dang -0.089807 -0.039229 -0.075215 0.0036083 0.20545 -0.055134 -0.046408 0.032842 -0.073553 0.0021806 -0.01805 0.1833 -1.1254e-05 -0.16165 -0.021118 -0.073996 0.22597 0.30637 -0.10438 -0.033979 0.12622 0.20177 0.081146 0.046049 -0.075066 0.066759 0.25485 0.1396 -0.075922 -0.12712 -0.049538 -0.016811 0.10568 0.017406 -0.035128 0.041168 0.091711 -0.2667 -0.011605 -0.26661 -0.12314 -0.14929 -0.10678 -0.1667 0.13569 -0.13491 0.018342 0.17397 0.17053 -0.032428 -0.027615 0.072459 0.0074558 0.12464 0.14551 -0.11715 0.022023 0.04236 0.1681 0.21727 0.28467 0.040936 0.15492 0.10536 0.063134 0.0070268 0.028349 -0.051519 -0.025718 -0.035291 -0.24561 -0.10743 0.21863 0.16186 0.11797 -0.067127 0.15983 0.12577 0.050164 -0.19457 -0.20788 0.057437 0.081595 -0.38896 -0.19837 -0.17131 0.10732 0.022549 -0.068059 0.055538 0.1748 -0.19587 0.30032 0.018651 -0.22211 0.20059 -0.11705 0.12812 -0.063274 0.13087 
hang -0.080397 -0.052331 -0.073524 0.019578 0.20677 -0.052399 -0.03337 0.027541 -0.092671 -0.0041903 -0.025147 0.16856 -0.014629 -0.16704 -0.032733 -0.071246 0.23796 0.31576 -0.11704 -0.030351 0.13168 0.19749 0.081413 0.053228 -0.069068 0.061985 0.24303 0.14967 -0.068771 -0.13401 -0.049866 -0.017045 0.11364 0.014653 -0.029827 0.045626 0.095772 -0.27952 -0.0062545 -0.2755 -0.13497 -0.14015 -0.10836 -0.16443 0.13278 -0.1329 0.020847 0.18316 0.18132 -0.02939 -0.017894 0.062712 0.011608 0.11556 0.14584 -0.095686 0.026434 0.044017 0.16226 0.24119 0.27345 0.041315 0.15462 0.11387 0.051823 0.016666 0.02799 -0.039105 -0.015671 -0.043306 -0.24861 -0.11607 0.22912 0.16929 0.1052 -0.07748 0.1705 0.10692 0.057307 -0.20137 -0.21617 0.062489 0.072412 -0.40071 -0.20192 -0.1673 0.10994 0.016209 -0.064463 0.060267 0.16799 -0.20029 0.31654 0.038486 -0.21186 0.20022 -0.11356 0.13494 -0.087596 0.12552 
bao -0.069421 -0.01722 -0.10054 -0.00155 0.20797 -0.040538 -0.033572 0.03714 -0.078259 0.0023227 -0.012635 0.19827 0.0020917 -0.16664 -0.020689 -0.046175 0.21425 0.31909 -0.1072 -0.050313 0.1327 0.20136 0.10506 0.035601 -0.05068 0.056929 0.24212 0.15068 -0.070591 -0.12968 -0.047303 -0.014055 0.099428 0.0049631 -0.032231 0.052289 0.088043 -0.2655 -0.028083 -0.25966 -0.12892 -0.16065 -0.12901 -0.16764 0.11753 -0.13939 0.024708 0.173 0.17959 -0.033479 -0.043241 0.10584 0.014886 0.11461 0.16271 -0.12153 0.02781 0.079928 0.15942 0.16707 0.27192 0.044644 0.14404 0.11832 0.070871 0.011768 0.044295 -0.028596 -0.035901 0.0018563 -0.2457 -0.10147 0.2093 0.15298 0.12398 -0.060073 0.15341 0.13001 0.055453 -0.19335 -0.2055 0.065498 0.083547 -0.37598 -0.2025 -0.16769 0.1139 0.012926 -0.051677 0.05313 0.16565 -0.15581 0.28607 0.016061 -0.21365 0.17807 -0.11307 0.12014 -0.06543 0.13745 
thanh -0.081118 -0.03337 -0.055386 -0.0018447 0.19791 -0.056685 -0.047593 0.024935 -0.078243 0.014351 -0.021868 0.16489 -0.0059556 -0.15401 -0.026639 -0.08246 0.22842 0.30898 -0.084785 -0.02918 0.12286 0.1818 0.064309 0.054877 -0.084128 0.067292 0.25595 0.13684 -0.071341 -0.13266 -0.046006 -0.0043447 0.10998 0.012116 -0.030513 0.035649 0.094269 -0.2709 -0.024377 -0.25657 -0.13627 -0.14477 -0.10214 -0.16809 0.12264 -0.13152 0.0047745 0.18431 0.17701 -0.046983 -0.036656 0.075433 0.013779 0.1307 0.1423 -0.10939 0.024997 0.035514 0.15876 0.2199 0.26983 0.030844 0.1434 0.10312 0.056105 0.0038119 0.035977 -0.051367 -0.025194 -0.040696 -0.24318 -0.10833 0.21019 0.15927 0.12465 -0.073108 0.15415 0.12109 0.053464 -0.19701 -0.19442 0.058989 0.071565 -0.41063 -0.20673 -0.16441 0.098227 0.038212 -0.065179 0.049402 0.17851 -0.20057 0.28298 0.017874 -0.22088 0.19688 -0.10578 0.13073 -0.062553 0.12147 
du -0.09169 -0.056076 -0.057672 -0.0081641 0.20121 -0.064874 -0.051312 0.027956 -0.078204 0.013556 -0.011167 0.15828 -0.0018996 -0.13965 -0.028692 -0.094664 0.23308 0.3016 -0.078439 -0.012314 0.12135 0.19569 0.060916 0.060968 -0.10425 0.073403 0.26628 0.13614 -0.069541 -0.12898 -0.051734 -0.0092385 0.097301 0.031409 -0.026622 0.019397 0.099304 -0.27331 -0.036197 -0.2607 -0.13295 -0.13862 -0.088673 -0.17421 0.1419 -0.14397 -0.0071807 0.19925 0.17649 -0.042872 -0.024755 0.059567 0.0020134 0.1346 0.12047 -0.12088 0.022305 0.025298 0.16877 0.25315 0.29126 0.042523 0.15305 0.1056 0.050236 0.0073879 0.031671 -0.053966 -0.021946 -0.068208 -0.23522 -0.11844 0.22057 0.16015 0.13419 -0.070989 0.1536 0.11798 0.046215 -0.2051 -0.20812 0.043019 0.084056 -0.42733 -0.21802 -0.18372 0.11515 0.026156 -0.074642 0.056726 0.17439 -0.22274 0.28352 0.023447 -0.22823 0.20176 -0.1219 0.12045 -0.062118 0.12969 
cao, -0.089242 -0.013334 -0.067087 -0.021994 0.20291 -0.063231 -0.066525 0.035108 -0.06819 0.018112 -0.0156 0.18671 0.011262 -0.14092 -0.004318 -0.071557 0.21149 0.30274 -0.060859 -0.037599 0.13294 0.2114 0.073079 0.064959 -0.10135 0.07755 0.28357 0.13568 -0.079189 -0.13079 -0.041587 -0.0068707 0.10851 0.028674 -0.043386 0.020907 0.096608 -0.27604 -0.041685 -0.25967 -0.12792 -0.17418 -0.11426 -0.177 0.12665 -0.151 0.0020551 0.17965 0.17083 -0.055558 -0.042685 0.10956 0.022615 0.15019 0.15819 -0.15222 0.017424 0.026429 0.18814 0.21187 0.31925 0.034961 0.15374 0.091994 0.077526 -0.012387 0.029231 -0.076926 -0.045708 -0.019818 -0.24871 -0.10729 0.21325 0.15672 0.1666 -0.051235 0.15773 0.14387 0.047413 -0.20175 -0.20393 0.049382 0.07709 -0.41717 -0.21238 -0.19983 0.10928 0.029491 -0.073926 0.041668 0.18607 -0.19545 0.26516 -0.0098349 -0.24041 0.21441 -0.1028 0.11298 -0.037278 0.14068 
giay -0.063382 -0.024206 -0.093504 -0.006411 0.209 -0.038215 -0.032668 0.024717 -0.076201 -0.00035221 -0.017928 0.18812 0.0023083 -0.16478 -0.024915 -0.044514 0.21599 0.31764 -0.1013 -0.052287 0.12343 0.1963 0.11281 0.036759 -0.055349 0.060611 0.24542 0.15358 -0.06591 -0.12533 -0.045993 -0.018218 0.098542 -0.0039986 -0.032365 0.054796 0.092904 -0.26587 -0.022901 -0.26268 -0.12087 -0.16123 -0.11829 -0.16915 0.10743 -0.13481 0.029805 0.17511 0.1716 -0.03255 -0.047957 0.11178 0.017901 0.12803 0.16886 -0.12701 0.025868 0.072848 0.15317 0.17314 0.2672 0.044296 0.14332 0.1072 0.075081 0.0074242 0.03957 -0.03263 -0.037211 -0.0047771 -0.23988 -0.10647 0.20777 0.15557 0.12776 -0.07126 0.15556 0.13203 0.048924 -0.18232 -0.20384 0.059768 0.074613 -0.37446 -0.20087 -0.17499 0.10139 0.021039 -0.05557 0.053746 0.16877 -0.15966 0.2849 0.010555 -0.21923 0.18694 -0.11351 0.11926 -0.073534 0.13507 
lam -0.079588 -0.030175 -0.055148 0.0022613 0.19502 -0.063125 -0.047713 0.026687 -0.081777 0.010523 -0.019997 0.1617 -0.0074102 -0.14937 -0.011364 -0.080265 0.22223 0.3163 -0.073617 -0.01942 0.12731 0.19394 0.071022 0.060181 -0.095769 0.079352 0.26741 0.13828 -0.062874 -0.12525 -0.035531 -0.0059993 0.11192 0.015827 -0.036958 0.025924 0.099902 -0.27004 -0.028794 -0.26134 -0.13964 -0.15952 -0.11039 -0.16407 0.13813 -0.13116 0.0057325 0.19346 0.16872 -0.050346 -0.03423 0.07985 0.015512 0.12737 0.14815 -0.12167 0.020022 0.027374 0.17216 0.22463 0.2855 0.036867 0.14928 0.096617 0.075115 0.01364 0.03748 -0.05156 -0.025039 -0.043519 -0.2417 -0.10341 0.22049 0.15933 0.13216 -0.061936 0.15205 0.12091 0.047988 -0.19688 -0.20546 0.049267 0.064978 -0.40253 -0.20726 -0.18217 0.10579 0.025747 -0.075869 0.044044 0.17088 -0.20578 0.28308 0.016136 -0.22636 0.20378 -0.099835 0.12484 -0.068604 0.13781 
anh -0.068364 -0.0096609 -0.069433 -0.01006 0.19744 -0.061109 -0.048137 0.022752 -0.077288 0.012194 -0.014505 0.1851 0.0028597 -0.16925 -0.0038915 -0.058412 0.209 0.32754 -0.079244 -0.034805 0.13381 0.18871 0.088855 0.05101 -0.071613 0.077652 0.25482 0.14234 -0.066326 -0.12828 -0.034944 -0.0048524 0.10865 0.00047177 -0.036204 0.037781 0.090375 -0.26241 -0.030256 -0.25417 -0.13409 -0.17459 -0.13123 -0.16378 0.097828 -0.12281 0.015503 0.17236 0.17786 -0.050976 -0.061328 0.10883 0.022127 0.13148 0.16967 -0.12465 0.024968 0.0547 0.15418 0.15467 0.2785 0.030912 0.13937 0.1042 0.087809 0.0094663 0.047132 -0.039536 -0.048655 -0.0036513 -0.23831 -0.089985 0.20557 0.15206 0.13543 -0.064954 0.14988 0.14616 0.046399 -0.18207 -0.20135 0.059563 0.058974 -0.38758 -0.20357 -0.18921 0.098744 0.036788 -0.060899 0.042492 0.1721 -0.15943 0.26 -0.0032031 -0.23174 0.18705 -0.091426 0.11149 -0.050174 0.13221 
hoang -0.088794 -0.048557 -0.076413 -0.001244 0.201 -0.052216 -0.047727 0.029867 -0.068773 0.010303 -0.015341 0.16217 0.00094356 -0.15232 -0.029455 -0.083361 0.22568 0.286 -0.10436 -0.032603 0.12279 0.18593 0.07245 0.042635 -0.072581 0.059525 0.24541 0.13738 -0.076054 -0.118 -0.048042 -0.0051774 0.098717 0.018596 -0.033844 0.040908 0.085724 -0.26269 -0.011281 -0.2574 -0.13366 -0.13152 -0.094166 -0.16083 0.13553 -0.14183 0.020049 0.186 0.17252 -0.030989 -0.026596 0.064425 0.0017893 0.11177 0.1317 -0.10892 0.023517 0.032171 0.17211 0.23342 0.27001 0.037412 0.14842 0.10466 0.049617 0.0023433 0.023234 -0.050959 -0.024205 -0.054479 -0.24437 -0.11527 0.21124 0.16435 0.12312 -0.073986 0.1521 0.10767 0.046308 -0.20452 -0.19712 0.061578 0.080842 -0.38813 -0.19769 -0.16039 0.10019 0.029795 -0.069524 0.04598 0.16281 -0.1991 0.28352 0.019766 -0.19816 0.18078 -0.12095 0.13315 -0.056354 0.11975 
cho, -0.088189 0.014261 -0.067598 -0.031609 0.20245 -0.071471 -0.079 0.032965 -0.067205 0.021218 -0.0083835 0.19588 0.016704 -0.15911 0.0072881 -0.072909 0.20249 0.30816 -0.058041 -0.048943 0.13514 0.21164 0.082375 0.050727 -0.091847 0.076316 0.29306 0.13733 -0.081078 -0.12246 -0.02415 -0.0041526 0.10814 0.017709 -0.050302 0.015525 0.091303 -0.26756 -0.050373 -0.24956 -0.14128 -0.19008 -0.13007 -0.16236 0.1169 -0.15252 0.014932 0.18172 0.17071 -0.060079 -0.061124 0.13654 0.02392 0.148 0.1764 -0.15761 0.010914 0.035348 0.19082 0.18093 0.31266 0.026757 0.15163 0.081708 0.09978 -0.0075312 0.031864 -0.07697 -0.067329 -0.0033823 -0.25795 -0.10507 0.20021 0.16554 0.18178 -0.059203 0.15816 0.16003 0.034008 -0.20448 -0.19611 0.055643 0.060624 -0.40689 -0.21585 -0.20566 0.098203 0.0459 -0.075132 0.022134 0.19307 -0.1781 0.23876 -0.026473 -0.24428 0.20303 -0.10568 0.11253 -0.017944 0.15007 
doanh -0.08007 -0.016495 -0.071591 -0.00074947 0.20158 -0.063548 -0.049158 0.023618 -0.074703 0.013332 -0.013391 0.18057 0.0049939 -0.17757 -0.0030962 -0.071053 0.22066 0.32422 -0.080185 -0.038209 0.14017 0.19414 0.081566 0.043059 -0.071877 0.076806 0.27324 0.13443 -0.071777 -0.12701 -0.03358 0.0030475 0.10485 0.0031739 -0.036249 0.037415 0.088103 -0.27449 -0.031571 -0.25621 -0.13644 -0.16888 -0.12733 -0.16605 0.11108 -0.13617 0.016438 0.17626 0.17752 -0.04484 -0.054389 0.10429 0.010339 0.13113 0.16447 -0.12153 0.018786 0.048572 0.16385 0.17988 0.28624 0.025 0.14306 0.10189 0.081422 0.0092935 0.040934 -0.05167 -0.038083 -0.023666 -0.24637 -0.10691 0.20718 0.15679 0.12639 -0.065567 0.15279 0.13584 0.047169 -0.19165 -0.20532 0.06212 0.058129 -0.39825 -0.21443 -0.18989 0.09818 0.033615 -0.06504 0.044348 0.1624 -0.17441 0.26429 0.0026569 -0.22498 0.18508 -0.09781 0.11502 -0.055492 0.1306 
thoa -0.080907 -0.02035 -0.091702 -7.6194e-05 0.18644 -0.056232 -0.050019 0.025859 -0.071407 -0.0092032 0.002717 0.18467 0.00058757 -0.1554 -0.013912 -0.054444 0.20398 0.30088 -0.092957 -0.045914 0.12167 0.19756 0.10686 0.03159 -0.064613 0.053153 0.246 0.15304 -0.078511 -0.12114 -0.045003 -0.020352 0.10435 0.020043 -0.040756 0.045825 0.082742 -0.26022 -0.0056017 -0.24913 -0.12285 -0.15038 -0.11787 -0.16847 0.10516 -0.13315 0.011001 0.17063 0.17217 -0.039898 -0.041256 0.10003 0.010098 0.12154 0.15465 -0.1245 0.036689 0.04053 0.16959 0.18854 0.29198 0.042454 0.16357 0.099931 0.075425 0.0031202 0.03998 -0.052441 -0.043688 0.0045475 -0.23134 -0.097229 0.20776 0.15095 0.12897 -0.061396 0.14422 0.14393 0.040446 -0.18866 -0.20078 0.072038 0.069056 -0.37351 -0.18053 -0.17686 0.10519 0.028765 -0.065579 0.042663 0.17519 -0.16841 0.27895 0.0084789 -0.21725 0.20377 -0.10909 0.11898 -0.046596 0.13047 
the -0.089275 -0.046268 -0.053371 0.0028762 0.19115 -0.069051 -0.056853 0.028201 -0.080674 0.017582 -0.0086871 0.16357 -0.005311 -0.13513 -0.02231 -0.092391 0.22245 0.29944 -0.0922 -0.017315 0.11643 0.18436 0.066582 0.053821 -0.089016 0.069465 0.26148 0.14475 -0.07148 -0.13172 -0.0551 -0.0080114 0.097752 0.024817 -0.040392 0.03696 0.094311 -0.27418 -0.027502 -0.25407 -0.13706 -0.13751 -0.087405 -0.17563 0.13144 -0.14159 8.6723e-05 0.1902 0.18634 -0.051121 -0.020462 0.070817 0.0048555 0.11303 0.14144 -0.10478 0.019759 0.031513 0.17051 0.24367 0.28031 0.033109 0.14579 0.10436 0.048679 0.013239 0.027821 -0.052282 -0.015684 -0.047893 -0.23348 -0.10767 0.21003 0.15993 0.12489 -0.066837 0.14967 0.10932 0.052336 -0.21054 -0.2074 0.051583 0.071771 -0.41201 -0.207 -0.16739 0.10633 0.037339 -0.0806 0.048884 0.17622 -0.20345 0.29812 0.01765 -0.23128 0.20681 -0.11448 0.13847 -0.066637 0.1358 
tot, -0.086909 -0.013724 -0.064878 -0.017999 0.19905 -0.065598 -0.06287 0.029724 -0.071982 0.014754 -0.0079111 0.18047 0.0039948 -0.14752 0.0018969 -0.075275 0.20845 0.30491 -0.066852 -0.034425 0.12768 0.19809 0.078866 0.054438 -0.095668 0.074073 0.28034 0.13758 -0.077647 -0.13195 -0.039943 -0.0049696 0.10516 0.019232 -0.038118 0.02663 0.09178 -0.27347 -0.041732 -0.25219 -0.13292 -0.16712 -0.12462 -0.16734 0.12254 -0.14606 0.0088485 0.17966 0.17472 -0.057678 -0.04704 0.10076 0.015873 0.14132 0.16006 -0.13819 0.013129 0.031919 0.17752 0.20374 0.29317 0.03514 0.14831 0.092052 0.081484 -9.8924e-05 0.033429 -0.068654 -0.047387 -0.028828 -0.24328 -0.10921 0.20844 0.15616 0.15744 -0.056347 0.15182 0.13715 0.038752 -0.19347 -0.19925 0.046361 0.063223 -0.40602 -0.20546 -0.197 0.10243 0.038899 -0.069463 0.037763 0.1797 -0.18461 0.25821 -0.0056124 -0.22801 0.20105 -0.1009 0.11014 -0.034683 0.13424 
